/*
 * Copyright (c) 2026 EdgeImpulse Inc.
 *
 * Generated by Edge Impulse and licensed under the applicable Edge Impulse
 * Terms of Service. Community and Professional Terms of Service
 * (https://edgeimpulse.com/legal/terms-of-service) or Enterprise Terms of
 * Service (https://edgeimpulse.com/legal/enterprise-terms-of-service),
 * according to your product plan subscription (the “License”).
 *
 * This software, documentation and other associated files (collectively referred
 * to as the “Software”) is a single SDK variation generated by the Edge Impulse
 * platform and requires an active paid Edge Impulse subscription to use this
 * Software for any purpose.
 *
 * You may NOT use this Software unless you have an active Edge Impulse subscription
 * that meets the eligibility requirements for the applicable License, subject to
 * your full and continued compliance with the terms and conditions of the License,
 * including without limitation any usage restrictions under the applicable License.
 *
 * If you do not have an active Edge Impulse product plan subscription, or if use
 * of this Software exceeds the usage limitations of your Edge Impulse product plan
 * subscription, you are not permitted to use this Software and must immediately
 * delete and erase all copies of this Software within your control or possession.
 * Edge Impulse reserves all rights and remedies available to enforce its rights.
 *
 * Unless required by applicable law or agreed to in writing, the Software is
 * distributed on an "AS IS" BASIS, WITHOUT WARRANTIES OR CONDITIONS OF ANY KIND,
 * either express or implied. See the License for the specific language governing
 * permissions, disclaimers and limitations under the License.
 */
// Generated on: 03.05.2026 08:50:29

#include <stdio.h>
#include <stdlib.h>
#include "edge-impulse-sdk/tensorflow/lite/c/builtin_op_data.h"
#include "edge-impulse-sdk/tensorflow/lite/c/common.h"
#include "edge-impulse-sdk/tensorflow/lite/micro/micro_mutable_op_resolver.h"
#include "edge-impulse-sdk/porting/ei_classifier_porting.h"

#if EI_CLASSIFIER_PRINT_STATE
#if defined(__cplusplus) && EI_C_LINKAGE == 1
extern "C" {
    extern void ei_printf(const char *format, ...);
}
#else
extern void ei_printf(const char *format, ...);
#endif
#endif

#define STRINGIZE(x) #x
#define STRINGIZE_VALUE_OF(x) STRINGIZE(x)

#if defined (__GNUC__)  /* GNU compiler */
#define ALIGN(X) __attribute__((aligned(X)))
#define DEFINE_SECTION(x) __attribute__((section(x)))
#elif defined (_MSC_VER)
#define ALIGN(X) __declspec(align(X))
#elif defined (__TASKING__) /* TASKING Compiler */
#define ALIGN(X) __align(X)
#define DEFINE_SECTION(x) __attribute__((section(x)))
#elif defined (__ARMCC_VERSION) /* Arm Compiler */
#define ALIGN(X) __ALIGNED(x)
#define DEFINE_SECTION(x) __attribute__((section(x)))
#elif defined (__ICCARM__) /* IAR Compiler */
#define ALIGN(x) __attribute__((aligned(x)))
#define DEFINE_SECTION(x) __attribute__((section(x)))
#elif defined (__clang__) /* LLVM/Clang Compiler */
#define ALIGN(X) __ALIGNED(x)
#define DEFINE_SECTION(x) __attribute__((section(x)))
#endif

#if defined(EI_MODEL_SECTION) && (defined(__GNUC__) || defined(__clang__))
#define MODEL_SECTION(X) __attribute__((section(STRINGIZE_VALUE_OF(X))))
#else
#define MODEL_SECTION(X)
#endif

#ifndef EI_MAX_SCRATCH_BUFFER_COUNT
#ifndef CONFIG_IDF_TARGET_ESP32S3
#define EI_MAX_SCRATCH_BUFFER_COUNT 14
#else
#define EI_MAX_SCRATCH_BUFFER_COUNT 28
#endif // CONFIG_IDF_TARGET_ESP32S3
#endif // EI_MAX_SCRATCH_BUFFER_COUNT

#ifndef EI_MAX_OVERFLOW_BUFFER_COUNT
#define EI_MAX_OVERFLOW_BUFFER_COUNT 10
#endif // EI_MAX_OVERFLOW_BUFFER_COUNT

using namespace tflite;
using namespace tflite::ops;
using namespace tflite::ops::micro;

namespace {

#if defined(EI_CLASSIFIER_ALLOCATION_STATIC_HIMAX) || defined(EI_CLASSIFIER_ALLOCATION_STATIC_HIMAX_GNU)
constexpr int kTensorArenaSize = 242656;
#else
constexpr int kTensorArenaSize = 241632;
#endif

#if defined(EI_CLASSIFIER_ALLOCATION_STATIC)
#if defined (EI_TENSOR_ARENA_LOCATION)
uint8_t tensor_arena[kTensorArenaSize] ALIGN(16) DEFINE_SECTION(STRINGIZE_VALUE_OF(EI_TENSOR_ARENA_LOCATION));
#else
uint8_t tensor_arena[kTensorArenaSize] ALIGN(16);
#endif
#elif defined(EI_CLASSIFIER_ALLOCATION_STATIC_HIMAX)
#pragma Bss(".tensor_arena")
uint8_t tensor_arena[kTensorArenaSize] ALIGN(16);
#pragma Bss()
#elif defined(EI_CLASSIFIER_ALLOCATION_STATIC_HIMAX_GNU)
uint8_t tensor_arena[kTensorArenaSize] ALIGN(16) __attribute__((section(".tensor_arena")));
#else
#define EI_CLASSIFIER_ALLOCATION_HEAP 1
uint8_t* tensor_arena = NULL;
#endif

static uint8_t* tensor_boundary;
static uint8_t* current_location;

template <int SZ, class T> struct TfArray {
  int sz; T elem[SZ];
};

enum used_operators_e {
  OP_CONV_2D, OP_DEPTHWISE_CONV_2D, OP_PAD, OP_ADD, OP_SOFTMAX,  OP_LAST
};

struct TensorInfo_t { // subset of TfLiteTensor used for initialization from constant memory
  TfLiteAllocationType allocation_type;
  TfLiteType type;
  void* data;
  TfLiteIntArray* dims;
  size_t bytes;
  TfLiteQuantization quantization;
};

typedef struct {
  TfLiteTensor tensor;
  int16_t index;
} TfLiteTensorWithIndex;

typedef struct {
  TfLiteEvalTensor tensor;
  int16_t index;
} TfLiteEvalTensorWithIndex;

TfLiteContext ctx{};
static const int MAX_TFL_TENSOR_COUNT = 4;
static TfLiteTensorWithIndex tflTensors[MAX_TFL_TENSOR_COUNT];
static const int MAX_TFL_EVAL_COUNT = 4;
static TfLiteEvalTensorWithIndex tflEvalTensors[MAX_TFL_EVAL_COUNT];
TfLiteRegistration registrations[OP_LAST];

namespace g0 {
const TfArray<4, int> tensor_dimension0 = { 4, { 1,96,96,3 } };
const TfArray<1, float> quant0_scale = { 1, { 0.0039215688593685627, } };
const TfArray<1, int> quant0_zero = { 1, { -128 } };
const TfLiteAffineQuantization quant0 = { (TfLiteFloatArray*)&quant0_scale, (TfLiteIntArray*)&quant0_zero, 0 };
const MODEL_SECTION(EI_MODEL_SECTION) ALIGN(16) int32_t tensor_data1[4*2] = { 
  0, 0, 
  0, 1, 
  0, 1, 
  0, 0, 
};
const TfArray<2, int> tensor_dimension1 = { 2, { 4,2 } };
const MODEL_SECTION(EI_MODEL_SECTION) ALIGN(8) int32_t tensor_data2[3] = { 12600, -22552, -17684, };
const TfArray<1, int> tensor_dimension2 = { 1, { 3 } };
const TfArray<3, float> quant2_scale = { 3, { 0.00027526236954145133, 0.00023072405019775033, 0.00020343650248833001, } };
const TfArray<3, int> quant2_zero = { 3, { 0,0,0 } };
const TfLiteAffineQuantization quant2 = { (TfLiteFloatArray*)&quant2_scale, (TfLiteIntArray*)&quant2_zero, 0 };
const MODEL_SECTION(EI_MODEL_SECTION) ALIGN(16) int8_t tensor_data3[3*1*1*32] = { 
  /* [0][0][][] */ 49,53,97,-97,-52,5,-1,27,-25,42,5,42,-6,-53,65,-1,-41,31,118,127,-33,-38,45,-62,-17,57,-49,-6,49,25,-16,31, 
  /* [1][0][][] */ 48,-35,-55,7,-7,105,-12,-6,102,-38,0,-127,-53,84,25,-41,77,-40,9,-83,-92,22,83,58,28,29,5,-17,-53,-43,0,-75, 
  /* [2][0][][] */ -36,70,-75,82,77,-37,-30,106,87,33,117,-42,-90,-76,75,108,-76,-56,-11,-127,67,109,-45,-80,78,-86,-14,-105,21,-71,80,-56, 
};
const TfArray<4, int> tensor_dimension3 = { 4, { 3,1,1,32 } };
const TfArray<3, float> quant3_scale = { 3, { 0.0047938353382050991, 0.0040181777440011501, 0.0035429510753601789, } };
const TfLiteAffineQuantization quant3 = { (TfLiteFloatArray*)&quant3_scale, (TfLiteIntArray*)&g0::quant2_zero, 0 };
const MODEL_SECTION(EI_MODEL_SECTION) ALIGN(16) int32_t tensor_data4[32] = { 659, 182, -160, 191, 206, 12, -122, 166, 160, -129, 225, 1215, -300, -288, -326, 178, -234, -302, 1012, 214, 180, 268, -237, -324, -159, 220, -277, -87, -315, -192, -254, 1186, };
const TfArray<1, int> tensor_dimension4 = { 1, { 32 } };
const TfArray<32, float> quant4_scale = { 32, { 4.615185025613755e-05, 4.143702972214669e-05, 4.2420033423695713e-05, 6.2549341237172484e-05, 4.3260275560896844e-05, 4.0832230297382921e-05, 4.2662544728955254e-05, 5.4492167691932991e-05, 5.0613602070370689e-05, 4.2557076085358858e-05, 4.2173400288447738e-05, 6.8688612373080105e-05, 4.3216863559791818e-05, 4.1871684516081586e-05, 4.5222710468806326e-05, 4.2371262679807842e-05, 4.5482862333301455e-05, 6.837790715508163e-05, 7.4535200837999582e-05, 7.4666320870164782e-05, 4.9249603762291372e-05, 4.6027776988921687e-05, 4.2416901123942807e-05, 4.3676511268131435e-05, 4.731111039291136e-05, 5.82051434321329e-05, 4.4584197894437239e-05, 4.5168031647335738e-05, 4.0473234548699111e-05, 4.1696559492265806e-05, 4.0526396333007142e-05, 7.2087481385096908e-05, } };
const TfArray<32, int> quant4_zero = { 32, { 0,0,0,0,0,0,0,0,0,0,0,0,0,0,0,0,0,0,0,0,0,0,0,0,0,0,0,0,0,0,0,0 } };
const TfLiteAffineQuantization quant4 = { (TfLiteFloatArray*)&quant4_scale, (TfLiteIntArray*)&quant4_zero, 0 };
const MODEL_SECTION(EI_MODEL_SECTION) ALIGN(16) int8_t tensor_data5[32*1*1*96] = { 
  /* [0][0][][] */ -58,-28,112,37,95,18,-69,-62,74,-85,-86,0,57,20,-20,64,-41,-24,-6,-53,-53,-85,17,115,-82,11,79,-46,100,-52,-7,-76,81,-50,-88,69,-87,-61,47,44,82,-68,-84,111,66,-87,112,-3,24,-64,-34,110,-79,-45,-63,127,23,83,110,-89,-36,62,-34,50,20,28,79,97,78,95,92,-100,116,-96,41,95,-101,25,-41,47,64,36,104,10,-40,-25,-62,103,34,120,-18,-124,26,98,39,23, 
  /* [1][0][][] */ -62,35,-72,-2,-71,80,42,15,83,-106,-106,116,67,-21,30,70,118,-38,19,107,-42,-2,41,32,14,14,-42,115,16,-34,108,-67,56,115,-6,34,58,69,-26,-66,-60,11,-16,-96,-32,42,-29,-49,-22,-80,69,66,18,92,-78,-58,43,102,60,89,-62,127,-73,-84,-77,39,82,50,89,34,30,18,-117,79,-45,51,90,-44,-40,68,-80,82,-59,-122,33,123,-68,-66,88,88,102,17,85,69,25,3, 
  /* [2][0][][] */ 48,36,-59,97,-19,-64,84,104,-104,93,-41,102,86,-26,81,-119,-66,-37,64,38,-110,-20,108,17,-19,77,100,14,-79,69,75,93,-90,-29,-101,-109,-91,87,120,-33,-127,-83,12,-8,-87,114,-35,-85,90,25,91,-100,-49,52,26,28,-82,87,-70,-3,-26,61,-44,50,79,41,45,82,-103,70,-3,-86,27,-67,21,29,-61,-30,0,11,31,-103,-23,-45,-4,-105,-28,-38,81,107,-24,-2,-57,-93,-57,-66, 
  /* [3][0][][] */ 97,-2,31,-21,-65,33,-69,22,35,8,54,43,61,77,57,18,77,79,-59,23,84,-54,-40,-72,-6,-127,-43,75,35,-47,63,15,-41,-15,3,-10,-61,-7,9,42,-8,-57,-57,6,56,27,-26,-52,48,-27,9,12,67,34,63,-89,-51,-92,-103,-35,-69,30,-11,62,26,-13,-36,-18,-54,-32,16,74,21,-100,44,-31,39,73,73,-43,-57,-79,23,73,24,42,-31,-68,-56,38,-1,-75,55,-94,-55,36, 
  /* [4][0][][] */ 89,103,4,58,-23,-36,36,15,61,95,0,69,24,-25,-6,-60,-20,2,-98,-10,110,-83,93,32,-14,13,65,-60,-54,41,-62,-46,71,127,28,-95,-45,4,-124,53,-41,-51,-63,-80,37,114,46,62,28,-45,-53,-78,-89,68,-81,16,46,-95,8,20,5,-63,-27,-76,-58,60,8,-28,-11,-89,-91,-74,-47,28,106,57,71,-14,-3,-58,4,-37,-95,-17,3,74,95,5,-114,-71,51,57,30,63,-96,-10, 
  /* [5][0][][] */ 87,-90,77,81,49,-105,27,44,117,-127,0,-71,24,109,33,44,64,66,-54,115,38,52,18,-30,-91,-65,-18,-117,38,14,21,-100,-38,3,-86,19,-118,-33,78,27,-90,-53,36,105,-26,35,47,-52,-111,91,32,48,16,14,48,-17,114,65,-85,-42,64,-101,53,-64,-31,110,-31,23,76,-8,112,-75,-37,81,-29,-77,13,-53,13,89,117,58,48,123,-83,87,0,44,73,-95,94,103,-13,1,92,-100, 
  /* [6][0][][] */ 11,-42,119,77,-82,-53,-3,76,-20,-75,5,-92,84,50,117,-122,42,-3,18,111,-81,-119,111,60,-57,-79,-8,-52,-31,-121,46,-80,-99,-127,-44,-96,-5,35,-100,78,83,56,23,-13,-117,102,-94,-49,-88,15,-37,-68,60,-67,99,-15,-2,-13,-67,112,-105,6,68,-73,-56,63,102,-55,79,-3,-107,-7,54,-67,-88,-38,-85,-100,-58,-21,28,-30,44,-31,-73,-87,-43,-101,81,91,97,14,-58,-61,71,-24, 
  /* [7][0][][] */ 116,55,-27,-32,-61,80,-12,-1,92,3,-72,21,44,-62,40,62,44,18,-17,74,46,32,0,72,-54,87,35,45,-59,80,-11,31,17,27,57,82,-81,75,-18,-17,80,-55,73,59,44,3,88,-83,45,-32,-127,-53,-16,82,16,19,98,-73,-1,-41,9,0,66,-90,-62,-40,57,25,-105,20,56,72,72,21,50,49,-43,47,-75,32,74,-25,-16,-57,72,30,-82,76,67,7,71,56,-43,-59,1,-45, 
  /* [8][0][][] */ 26,30,-37,-75,52,12,-60,-23,7,27,43,93,5,-27,-70,-55,-55,88,-66,12,33,-18,73,97,-93,85,43,58,-59,10,-72,103,79,-19,43,2,101,12,-24,67,76,94,-89,-95,-2,-14,-9,98,22,-69,-78,6,-57,4,-21,-93,48,96,-93,92,115,34,49,98,-40,-33,-16,89,-104,46,32,5,75,56,9,20,-30,94,74,59,34,78,-86,-66,25,40,70,-31,36,-26,-77,94,-64,-127,-29,55, 
  /* [9][0][][] */ -8,1,110,46,74,-118,-50,-127,37,39,-12,47,-27,-79,-105,-35,8,-1,-122,-69,10,100,-111,-107,98,-5,-18,18,-19,-69,-97,91,66,3,33,-23,-85,19,-51,-46,50,-68,50,-102,77,11,-107,54,53,-16,-95,-56,63,-70,-86,102,77,-67,15,-6,-100,103,73,-84,-63,-2,104,49,-61,95,109,-82,-4,73,-116,-103,-91,-122,-42,103,30,15,103,18,-49,-101,37,-26,105,25,-29,101,110,-9,53,-44, 
  /* [10][0][][] */ -33,86,98,-64,-22,93,114,30,40,32,30,-58,102,93,-30,16,-33,88,-115,-80,-16,34,63,-66,34,64,-116,-113,-47,77,-91,-78,84,112,127,79,-40,15,-44,41,-30,125,-106,-33,-92,-51,4,-54,3,19,-11,10,69,39,-59,-38,-94,-19,25,-42,1,89,118,41,108,-72,-95,-15,-6,-15,-93,-63,94,71,-82,114,-5,70,72,18,81,4,55,108,-99,74,108,-22,40,13,-1,-62,-54,-90,-43,-58, 
  /* [11][0][][] */ 79,33,28,68,89,78,54,61,42,127,-27,56,10,-64,54,-19,10,-75,78,45,14,70,42,-30,-68,-41,7,63,78,61,13,6,-61,-63,38,41,13,47,13,-36,-8,66,-43,65,-39,-49,-60,-59,46,98,95,46,-43,-96,37,41,-59,-44,33,-30,-96,97,81,4,45,70,-2,14,95,41,-26,-64,37,66,-48,62,-24,56,-16,53,-73,-16,-36,-51,47,-6,6,-10,-48,7,38,-73,-52,55,-33,-21, 
  /* [12][0][][] */ -17,64,-60,-4,90,-6,-42,29,-79,50,-22,3,-48,6,40,-88,-106,-37,-53,-22,22,-17,11,89,-73,-54,92,-102,86,34,-45,108,-79,-74,-48,13,-11,-82,-22,36,107,33,-116,-50,-29,-92,-48,109,-49,-126,-45,100,28,-4,-94,75,-29,-60,61,60,45,103,-10,60,127,24,-52,114,36,95,33,68,76,112,-17,-11,-45,29,-122,-79,-63,98,34,6,-44,24,47,109,-99,-116,89,34,95,-25,21,66, 
  /* [13][0][][] */ 99,-63,101,92,86,113,76,55,77,-108,4,-35,91,69,62,-55,-127,-77,-45,66,68,-36,114,-56,-60,30,4,16,-90,-115,81,39,51,100,-30,35,-90,-37,34,62,-73,75,-65,5,-48,24,-10,-38,35,83,-26,-102,-107,20,101,-82,-55,26,-24,-85,-23,108,-78,28,-26,-71,-103,77,-16,-15,94,-5,-94,26,-70,-48,-99,62,77,-61,50,-101,113,18,-89,-111,89,113,-11,-58,-91,63,115,-73,76,-22, 
  /* [14][0][][] */ -100,-106,76,62,76,-43,-21,-117,-76,-45,63,64,-36,-75,-93,-91,-63,-54,-4,28,-42,24,-12,50,-109,-66,-36,17,-121,-111,-84,40,101,-21,-38,-7,77,112,25,-106,-6,-105,20,73,64,-104,61,-85,110,27,76,49,76,-13,-18,13,-64,-2,36,80,-13,-91,-28,63,-93,-14,66,-103,-98,-99,-102,92,-1,81,41,-80,53,-114,47,25,41,-19,-127,-34,-117,-98,-109,102,100,0,75,-45,83,68,-41,49, 
  /* [15][0][][] */ 53,-27,-23,80,91,-99,69,-96,61,0,-64,25,111,12,-84,-108,96,18,-108,9,53,27,80,117,81,81,47,100,30,64,73,-96,4,18,-53,-4,-64,123,96,-61,24,122,-39,-18,30,-72,-35,-73,-3,-61,-43,31,-91,-86,-44,-8,79,49,-46,118,-49,-54,5,105,-42,105,-65,15,-78,15,69,-67,24,-8,64,-103,9,63,113,69,-79,62,-110,-61,-117,-30,-88,42,92,75,-103,-32,57,86,-105,127, 
  /* [16][0][][] */ -94,2,92,-62,48,118,-54,32,49,40,-105,61,-11,-48,-54,-57,99,73,87,82,105,70,-41,46,-25,48,-66,54,-100,9,36,11,-95,67,45,54,-34,48,-31,-66,18,-47,61,81,59,97,96,-16,-55,-117,43,112,-48,96,64,53,21,94,55,9,127,91,38,66,52,13,-39,80,55,87,-31,-12,31,83,55,79,-14,88,-105,-8,15,-73,66,15,9,92,96,10,73,14,-23,109,70,-15,-68,13, 
  /* [17][0][][] */ 20,-76,10,46,0,-100,-47,-65,23,-60,48,39,58,32,-80,25,14,31,63,127,-63,-15,3,-40,13,42,-52,17,78,-14,-24,44,-24,-21,22,-2,-40,60,-58,-22,-64,-29,-13,-15,1,4,52,-72,47,105,-3,16,-12,43,56,-53,-80,55,-44,-76,15,-51,45,81,-41,-52,20,-67,-72,-6,61,20,4,-65,-54,35,70,-37,22,-42,6,-13,-67,-58,-77,40,46,-25,7,41,-78,-78,-8,41,-3,10, 
  /* [18][0][][] */ -90,39,116,34,-2,16,-29,94,8,107,-32,-70,-13,9,80,-21,20,-41,109,-34,50,-6,25,7,42,-79,16,77,26,-127,39,68,-27,-18,-44,-93,2,33,61,50,-28,5,21,37,-36,22,-8,10,-21,-3,-106,50,-56,-10,75,49,-72,-16,26,-62,73,56,-25,13,20,-32,11,49,94,5,-28,56,-31,7,-63,-22,52,45,25,-83,-17,-10,-42,-9,89,1,36,22,-62,-28,-67,-92,35,3,-13,35, 
  /* [19][0][][] */ -4,17,56,27,29,-21,62,61,55,-28,20,-16,-56,12,-21,42,55,-65,62,-8,-16,54,-25,16,47,-52,17,-38,-55,-61,-33,27,36,-49,17,-4,21,-43,-31,-53,26,-68,-49,16,-48,14,36,-52,-14,7,-14,21,-25,0,9,-10,14,47,-12,-7,21,-29,51,8,-82,2,-4,0,28,27,48,-35,-42,-72,-40,-37,-19,-54,14,60,35,-71,-14,45,-42,4,4,-1,53,19,-12,36,-23,127,37,-36, 
  /* [20][0][][] */ -12,61,66,85,-89,75,23,59,7,10,-72,-4,-5,81,44,-62,-34,-26,-76,-52,25,-30,-59,-56,51,-65,-85,50,26,-3,-32,91,95,47,3,51,43,-25,-28,-93,-68,-25,-72,-86,-26,-62,-62,99,61,-94,-127,36,55,102,45,-10,98,63,63,85,77,-31,-60,-26,-21,-58,-35,18,-77,-63,-48,79,-59,-98,44,20,94,76,100,93,76,-6,67,-32,56,104,-10,63,24,84,37,48,18,14,-14,15, 
  /* [21][0][][] */ 125,72,69,-93,87,-74,73,12,-2,-65,-61,55,3,45,-43,-78,-92,-20,6,-22,104,-40,71,-73,56,-72,-26,67,15,1,-2,-16,6,29,-77,-102,106,101,-123,-24,2,14,32,-7,-85,-70,-63,93,-16,-50,-46,85,35,82,-84,17,-36,48,-60,117,59,-66,24,-10,59,35,-29,-58,-127,0,60,78,37,-19,71,65,-95,-23,63,94,16,98,34,-64,28,-84,65,-74,-93,77,100,-94,-40,-87,71,-24, 
  /* [22][0][][] */ 29,-63,-80,-99,85,-24,117,51,-104,86,-80,-115,114,-122,-120,-88,35,79,-116,-52,84,-79,26,31,90,-15,-124,94,-58,-54,-74,-118,46,55,36,5,-1,-21,-67,-123,-3,-19,-7,91,51,-126,88,-27,-68,-73,3,-5,-71,-100,-45,29,3,-41,-19,-35,110,-84,-75,-124,-75,16,-118,-54,124,97,-25,-8,-74,1,63,-99,57,-58,63,88,103,-105,-76,-127,75,81,91,-35,-60,30,-74,54,14,29,-25,93, 
  /* [23][0][][] */ 34,-96,-4,50,83,-127,-5,-110,50,-91,74,61,10,-114,9,-47,77,-43,-112,86,83,-89,93,-43,-26,-26,71,10,60,40,63,-43,-48,34,7,20,86,-17,-118,-6,-113,-9,-2,-117,-77,-97,98,16,68,-117,-93,-61,68,-64,-62,78,-93,-28,89,36,-115,-99,-69,-28,30,29,-124,-123,57,-27,100,-80,-17,-24,-48,-102,35,-31,83,111,-61,-62,14,-106,84,-3,102,-28,-97,33,87,-14,98,-54,-42,70, 
  /* [24][0][][] */ -127,-39,-102,-118,-111,-84,-76,-99,61,104,66,47,103,58,-55,-96,-76,49,19,-40,98,-78,-46,-53,36,-29,55,57,114,70,14,-63,1,13,33,45,-45,-91,-4,-20,-67,-85,98,7,26,-14,38,75,-60,11,-23,12,81,69,82,-68,-13,98,65,-2,96,23,-15,101,-108,87,-51,-79,-86,46,-38,-18,-13,3,81,94,80,-68,-100,-46,-69,-73,-66,-87,1,43,7,-71,30,-89,19,-69,-21,6,-76,38, 
  /* [25][0][][] */ -112,-32,-40,22,78,-59,-70,58,67,-59,-23,16,66,3,-79,-22,-55,51,84,-57,63,66,-2,-43,35,-49,-69,52,51,-103,36,84,88,-77,42,52,73,-44,71,0,-71,76,-64,-11,83,36,48,37,-81,32,21,30,19,-26,-24,75,-17,61,-39,56,127,27,45,64,51,50,-9,19,-57,27,-13,-79,57,-72,67,31,39,59,23,28,40,63,-30,76,-58,-35,-68,-69,-23,-9,93,-13,-76,-49,10,-29, 
  /* [26][0][][] */ 38,-104,-26,-19,-74,4,-15,-21,-102,-127,99,77,-77,-47,4,-17,107,31,-76,-21,16,65,94,8,57,58,10,43,8,39,-92,-3,-6,-59,-93,-79,-65,79,-46,102,-97,97,49,25,-73,69,-40,96,-15,11,89,98,9,-49,-10,-102,97,77,49,23,5,-97,72,0,110,-23,-58,50,-84,74,82,94,75,-98,-74,4,40,-106,-96,37,-29,77,89,-69,73,-3,-43,14,-79,109,7,22,-50,120,54,75, 
  /* [27][0][][] */ 8,13,-67,-113,-127,-74,-68,-23,29,118,33,-114,-29,56,77,-26,71,-13,82,-127,-89,9,-24,-26,-94,39,-103,-29,60,11,-27,-17,61,63,-95,-79,-74,-58,-110,76,-87,15,19,15,91,17,68,97,87,0,49,-75,-108,-82,-15,-38,94,-16,-84,-70,-66,-52,-36,73,28,-49,-109,87,45,-1,-104,7,59,-53,4,-88,28,-58,78,90,80,-30,104,-67,-69,-75,-31,21,-50,-4,-69,-48,50,22,82,39, 
  /* [28][0][][] */ 95,-12,84,40,-115,-65,-108,-82,-46,-119,56,70,-83,-97,-3,102,92,114,-81,77,-36,19,-122,-88,-123,76,-93,-65,-78,-80,-6,-20,-116,11,86,71,11,-120,-46,26,103,36,-103,44,-120,-17,9,46,17,-66,-78,-40,-87,20,51,34,64,-19,85,49,-13,-42,-115,-2,55,69,-29,80,-81,25,-114,-53,69,41,-9,-113,-126,-75,-98,38,-88,-101,112,-38,57,-127,62,-96,-118,-79,-48,-68,-47,68,-109,-75, 
  /* [29][0][][] */ 42,55,61,-48,-98,29,-123,14,102,-8,-94,-115,108,-115,-49,-49,-104,96,50,-116,-84,-37,54,5,-33,0,-48,-25,-110,-24,104,-4,42,-5,-89,-60,-10,98,5,92,44,103,-47,86,-5,103,-63,-32,11,-15,78,-102,67,-111,117,61,-106,49,-53,108,-127,100,-109,-72,-70,-67,53,83,123,-84,30,-85,108,85,58,27,110,-66,-34,40,-10,-91,-4,-81,64,116,39,78,-44,97,77,77,-111,69,-4,62, 
  /* [30][0][][] */ 29,-76,-73,36,-105,19,-74,-21,119,-21,-6,-48,-106,19,55,11,-11,36,93,-112,43,-113,-126,8,-123,21,-82,115,-19,-115,-104,2,-89,-76,-126,-62,9,-21,-9,21,92,-83,-21,97,103,-50,108,58,-77,77,18,-110,93,-55,-18,102,-88,-59,-89,-60,-111,-10,-80,-36,-114,-96,-106,95,-65,109,50,-37,-95,106,38,-98,-64,-81,-86,-64,26,28,-111,-24,-119,24,-115,113,-40,-127,76,57,-36,-3,8,-80, 
  /* [31][0][][] */ 28,-28,67,95,32,85,-5,2,13,49,-28,-54,97,-73,13,85,-6,-47,75,31,50,52,8,98,33,-45,45,70,-9,-6,50,100,36,20,-32,11,94,-13,23,-57,47,-33,7,48,17,-37,-26,32,62,17,124,-8,-29,-33,-20,53,-63,48,51,95,-50,43,53,-40,75,89,10,-31,106,-34,-50,15,-69,7,30,43,-33,1,57,89,-24,-34,49,51,65,81,-44,35,34,-5,-9,-46,29,127,-10,17, 
};
const TfArray<4, int> tensor_dimension5 = { 4, { 32,1,1,96 } };
const TfArray<32, float> quant5_scale = { 32, { 0.0019614535849541426, 0.001761073712259531, 0.0018028514459729195, 0.002658346900716424, 0.0018385616131126881, 0.0017353697912767529, 0.0018131580436602235, 0.0023159170523285866, 0.0021510780788958073, 0.001808675704523921, 0.0017923694103956223, 0.0029192660003900528, 0.0018367166630923748, 0.0017795466119423509, 0.0019219651585444808, 0.0018007786711677909, 0.0019330215873196721, 0.0029060610104352236, 0.00316774589009583, 0.0031733186915516853, 0.0020931081380695105, 0.0019561804365366697, 0.0018027182668447495, 0.0018562516197562218, 0.002010722178965807, 0.002473718486726284, 0.0018948283977806568, 0.0019196412758901715, 0.0017201123991981149, 0.0017721037147566676, 0.001722371787764132, 0.003063717857003212, } };
const TfLiteAffineQuantization quant5 = { (TfLiteFloatArray*)&quant5_scale, (TfLiteIntArray*)&g0::quant4_zero, 0 };
const MODEL_SECTION(EI_MODEL_SECTION) ALIGN(16) int32_t tensor_data6[96] = { -1420, 4300, 9894, 2117, -4565, -4415, 16756, 1953, 3028, -1364, 9876, -226, -12628, 2575, 15064, 4431, 15217, 4451, -5353, -4424, 5059, 23328, 17126, 20339, 1155, 902, 3593, 3813, 2298, -4019, 5168, -2635, -219, 4190, 84, 1039, 8322, 2946, -1705, 3753, 8540, 6437, 6033, 8945, 4850, 4380, 1444, 8304, 5745, -4581, -6931, 461, -317, -765, 2957, -31, 282, -1263, -6301, 13878, -951, 1378, -1440, -2085, -5739, 8288, 15776, 1367, -2008, 855, 1449, 3110, 1936, -1068, 598, 14138, -548, 18297, 13174, -802, 8450, 2310, -463, 1106, 16740, 15813, 5666, 1375, 6361, 4460, -459, -9065, 727, -1837, -1565, -1823, };
const TfArray<1, int> tensor_dimension6 = { 1, { 96 } };
const TfArray<96, float> quant6_scale = { 96, { 0.00045175463310442865, 0.000368515495210886, 0.00024328763538505882, 0.00041927539859898388, 0.00022065057419240475, 0.0003315359354019165, 0.00019887865346390754, 0.00036335061304271221, 0.00020343286450952291, 0.00046672971802763641, 0.00019944913219660521, 0.00034669318119995296, 0.00020277115982025862, 0.0011166159529238939, 0.00020473162294365466, 0.00026542675914242864, 0.00012338135275058448, 0.00032671866938471794, 0.00035045863478444517, 0.0003755873185582459, 0.00012566118675749749, 0.00011621695739449933, 0.00017930140893440694, 8.2779260992538184e-05, 0.00016983773093670607, 0.00053050200222060084, 0.00082984502660110593, 0.00028701071278192103, 0.00021105397900100797, 0.00048299357877112925, 0.00028290570480749011, 0.00029228031053207815, 0.00017475562344770879, 0.00027720199432224035, 0.00030275166500359774, 0.00024121213937178254, 0.00023034035984892398, 0.0003698358777910471, 0.00034512003185227513, 0.00047061959048733115, 0.00015162691124714911, 0.00040434079710394144, 0.0002481736009940505, 0.00025904277572408319, 0.00039118455606512725, 0.00022863956110086292, 0.00034318937105126679, 0.00025410228408873081, 0.00023437583877239376, 0.00028751607169397175, 0.00022719439584761858, 0.00024767476134002209, 0.00045296174357645214, 0.00035645923344418406, 0.00026175353559665382, 0.00040585530223324895, 0.0003721119137480855, 0.00021319238294381648, 0.00024276206386275589, 0.00013400414900388569, 0.00072370900306850672, 0.00046291801845654845, 0.00017602699517738074, 0.00036197248846292496, 0.00032638595439493656, 0.00023123121354728937, 0.00013721815776079893, 0.00028774532256647944, 0.00056826550280675292, 0.00036038833786733449, 0.00025979420752264559, 0.00017519645916763693, 0.00071726739406585693, 0.00036899608676321805, 0.00030290998984128237, 0.0001536261843284592, 0.00029059220105409622, 0.00010285996540915221, 0.00013922835933044553, 0.00022394066036213189, 0.00017568058683536947, 0.00015277521742973477, 0.0001867792452685535, 0.00021084827312733978, 0.0001083826064132154, 0.00015145879297051579, 0.00041176640661433339, 0.00020183630113024265, 0.00011412736785132438, 0.00046266839490272105, 0.00023687635257374495, 0.00021730294974986464, 0.00028120700153522193, 0.00048958970000967383, 0.00039800474769435823, 0.00022228331363294274, } };
const TfArray<96, int> quant6_zero = { 96, { 0,0,0,0,0,0,0,0,0,0,0,0,0,0,0,0,0,0,0,0,0,0,0,0,0,0,0,0,0,0,0,0,0,0,0,0,0,0,0,0,0,0,0,0,0,0,0,0,0,0,0,0,0,0,0,0,0,0,0,0,0,0,0,0,0,0,0,0,0,0,0,0,0,0,0,0,0,0,0,0,0,0,0,0,0,0,0,0,0,0,0,0,0,0,0,0 } };
const TfLiteAffineQuantization quant6 = { (TfLiteFloatArray*)&quant6_scale, (TfLiteIntArray*)&quant6_zero, 0 };
const MODEL_SECTION(EI_MODEL_SECTION) ALIGN(16) int8_t tensor_data7[96*1*1*16] = { 
  /* [0][0][][] */ -10,80,0,-69,8,23,-62,-127,-13,4,22,84,-17,-69,-16,48, 
  /* [1][0][][] */ -20,10,-70,0,-34,-29,30,-85,57,43,-89,8,-11,-15,50,-127, 
  /* [2][0][][] */ -17,15,-29,41,26,31,-58,-48,118,-22,-14,-3,21,52,-127,27, 
  /* [3][0][][] */ 52,-52,4,-77,19,5,1,-21,127,-11,56,49,-15,55,-20,93, 
  /* [4][0][][] */ -127,62,6,40,-18,-36,-38,67,-7,-8,8,-79,-120,-30,49,1, 
  /* [5][0][][] */ 2,40,98,16,16,68,-80,93,-60,48,-43,-35,26,-54,-127,27, 
  /* [6][0][][] */ 43,-44,119,-127,35,15,-39,106,-84,-105,55,-25,-16,65,-28,93, 
  /* [7][0][][] */ 8,127,-23,-53,92,27,-8,-53,127,82,2,24,6,-13,22,42, 
  /* [8][0][][] */ 15,-81,3,-92,23,-55,-6,-73,17,78,80,-12,12,127,60,69, 
  /* [9][0][][] */ 1,-31,-18,127,44,-7,43,-51,-71,126,39,-6,3,-75,-24,-2, 
  /* [10][0][][] */ -31,28,-61,-127,20,-15,-8,26,20,-30,24,-39,-13,-26,-1,12, 
  /* [11][0][][] */ -17,44,-3,-26,65,-28,45,-39,-127,40,-2,22,-8,102,-37,-18, 
  /* [12][0][][] */ 83,-18,-124,8,63,-54,0,-7,34,34,-60,-76,-45,127,-8,20, 
  /* [13][0][][] */ -14,6,-35,24,20,-127,-13,22,-3,0,6,-17,6,-13,45,13, 
  /* [14][0][][] */ 36,-41,121,-22,32,34,-127,-103,-1,-28,21,57,8,-42,-55,-57, 
  /* [15][0][][] */ -16,4,40,-45,11,19,127,51,-13,84,27,-22,80,88,9,-15, 
  /* [16][0][][] */ 7,72,127,45,-14,4,92,91,-112,34,-71,-18,28,2,20,-71, 
  /* [17][0][][] */ -40,-73,-28,22,-46,-30,-58,16,-127,-24,22,-56,-6,24,56,-29, 
  /* [18][0][][] */ 14,34,7,49,50,19,13,-25,80,34,-6,-22,7,127,38,12, 
  /* [19][0][][] */ 1,24,-3,-4,55,10,-67,-26,-127,-121,-95,-88,-43,-76,-11,-20, 
  /* [20][0][][] */ 64,-7,-80,-49,-12,-127,-57,65,-96,32,-81,-18,-13,-16,61,13, 
  /* [21][0][][] */ 52,-5,114,-20,-9,6,22,111,-20,-108,53,7,63,127,11,61, 
  /* [22][0][][] */ -26,49,-95,127,-31,1,73,47,-27,13,19,14,-44,-28,22,-5, 
  /* [23][0][][] */ 101,-3,74,-111,127,-41,7,46,47,-98,22,-78,-22,-44,-120,47, 
  /* [24][0][][] */ -127,43,11,-17,-2,123,40,-29,1,15,112,0,-103,10,58,-29, 
  /* [25][0][][] */ 18,36,1,16,6,-1,65,-44,-7,-127,-4,-25,-21,-45,34,26, 
  /* [26][0][][] */ -41,-1,-12,12,-40,-14,-31,-40,-93,-57,14,-22,5,127,-44,48, 
  /* [27][0][][] */ 3,24,1,57,34,-30,-29,-26,46,12,-30,-14,14,127,2,8, 
  /* [28][0][][] */ 9,76,79,51,123,-21,23,46,-94,-16,-51,-6,15,127,108,-39, 
  /* [29][0][][] */ -25,-13,-3,15,27,-19,7,35,-10,-25,2,-127,18,-6,-11,-21, 
  /* [30][0][][] */ -12,73,-39,73,-30,-10,37,-127,-29,71,-11,0,62,46,57,81, 
  /* [31][0][][] */ -30,-1,-11,-74,-13,-6,-46,-109,24,63,-9,-127,-38,-25,30,24, 
  /* [32][0][][] */ -127,-96,-13,58,52,32,-18,21,-3,-57,-102,41,75,-5,84,88, 
  /* [33][0][][] */ 21,-66,-30,4,-76,-9,-81,10,77,-5,-4,-63,20,-127,125,31, 
  /* [34][0][][] */ 39,-10,53,15,33,6,-53,82,-88,-50,67,27,0,-17,-9,127, 
  /* [35][0][][] */ -79,101,-83,17,-25,-27,15,-94,78,113,-94,1,20,-22,90,-127, 
  /* [36][0][][] */ -25,10,34,127,15,16,126,46,-23,85,-38,-18,38,13,-50,-81, 
  /* [37][0][][] */ 19,16,-8,-63,-1,-4,-42,-38,-71,-20,16,4,-18,-127,51,-21, 
  /* [38][0][][] */ 36,121,-8,-55,127,-15,32,-28,107,52,31,0,-6,-8,29,26, 
  /* [39][0][][] */ -37,81,-33,-127,0,-4,-31,22,34,-73,-12,-43,16,54,32,25, 
  /* [40][0][][] */ -1,-31,5,-127,-18,-61,23,-18,-120,-66,13,-10,5,-125,77,-63, 
  /* [41][0][][] */ -4,-4,-60,-17,2,-33,11,-5,-44,-4,-46,-22,-127,-20,21,34, 
  /* [42][0][][] */ 127,79,-25,-10,-64,-57,-9,-67,17,9,96,-74,-52,55,105,-116, 
  /* [43][0][][] */ -11,82,-54,-6,75,-11,127,-52,64,49,-31,9,43,-80,-99,-51, 
  /* [44][0][][] */ -77,-19,23,-84,70,-46,-119,-127,-69,13,24,-15,15,-37,125,-84, 
  /* [45][0][][] */ -28,61,-127,-34,41,-62,25,-79,26,30,10,-63,30,-4,39,-16, 
  /* [46][0][][] */ 0,8,-25,-82,6,4,16,-30,-127,-28,2,-5,1,-123,74,-23, 
  /* [47][0][][] */ 7,32,14,-13,87,-31,-28,27,-66,20,-8,21,6,-15,127,-26, 
  /* [48][0][][] */ -117,-103,2,56,71,27,3,-17,17,3,-127,62,52,23,94,31, 
  /* [49][0][][] */ 24,28,124,85,127,24,49,22,-76,-66,-13,-52,2,52,14,-44, 
  /* [50][0][][] */ -8,34,-124,-110,51,-127,-28,-10,-5,4,37,-89,100,-19,45,-37, 
  /* [51][0][][] */ 11,21,24,-8,8,-8,-13,31,-127,22,-27,-97,13,-60,6,44, 
  /* [52][0][][] */ 2,32,-14,50,16,3,-12,37,70,72,-39,-31,56,127,92,1, 
  /* [53][0][][] */ 5,-38,-25,-2,-71,0,-64,12,58,-5,8,-57,9,-127,82,9, 
  /* [54][0][][] */ 77,2,-32,17,127,96,-97,-50,-64,-50,-68,-66,11,-43,-35,-40, 
  /* [55][0][][] */ 59,21,13,7,50,-31,-62,-127,-22,-67,-62,16,-19,-10,10,-6, 
  /* [56][0][][] */ -23,23,12,-22,0,-22,-123,77,-29,127,3,-29,32,13,-11,12, 
  /* [57][0][][] */ -11,33,-55,-31,-51,-57,112,108,-82,31,-26,-38,37,9,127,-3, 
  /* [58][0][][] */ 62,17,-127,41,120,89,-16,73,-90,-89,-40,60,-64,28,68,-8, 
  /* [59][0][][] */ -80,53,99,23,-84,-58,100,127,19,-2,28,-7,8,-3,78,4, 
  /* [60][0][][] */ -12,52,-62,-13,52,-127,-37,7,-51,-43,1,-69,24,-45,31,7, 
  /* [61][0][][] */ 31,-11,25,127,89,32,22,-1,-77,-11,19,37,-18,29,14,-44, 
  /* [62][0][][] */ -58,127,0,-57,-35,-23,-62,57,-33,-99,-68,-54,-23,-104,-49,-34, 
  /* [63][0][][] */ -71,69,-48,127,-106,19,-71,-30,-105,-43,-40,-33,10,63,34,50, 
  /* [64][0][][] */ 19,-16,33,67,-20,-1,-47,66,-40,-12,-54,-23,-28,-104,127,28, 
  /* [65][0][][] */ -22,-41,16,-127,71,-26,70,-43,-2,28,19,-109,-1,-13,-23,-66, 
  /* [66][0][][] */ 57,19,78,-12,26,33,41,79,48,-65,49,43,12,127,-54,50, 
  /* [67][0][][] */ -9,62,-17,-127,-9,-4,-53,32,68,-81,-25,-11,38,74,64,30, 
  /* [68][0][][] */ -46,-7,127,6,0,-1,-19,-10,-11,3,-2,-7,10,-12,67,-21, 
  /* [69][0][][] */ 98,67,-12,-11,-61,-29,-45,-27,26,37,127,-59,-60,69,43,-94, 
  /* [70][0][][] */ 52,26,-76,-24,-13,25,88,127,-64,121,-59,-33,37,72,-21,20, 
  /* [71][0][][] */ 10,-10,2,14,-8,-68,-14,33,-46,28,-85,11,-127,3,56,42, 
  /* [72][0][][] */ -8,15,-127,-22,7,-12,11,58,-59,-4,14,-29,5,-4,25,5, 
  /* [73][0][][] */ -74,10,32,0,42,-61,-91,-127,17,-94,43,-24,26,-72,56,-18, 
  /* [74][0][][] */ -5,34,21,113,5,2,-100,81,-70,40,-17,43,0,-127,36,-88, 
  /* [75][0][][] */ -2,28,-77,12,20,-9,14,-13,127,8,-2,-20,-16,115,-25,-5, 
  /* [76][0][][] */ 6,-15,6,23,9,-3,-22,45,12,-11,-19,-127,-9,7,3,8, 
  /* [77][0][][] */ -25,38,-33,127,-63,10,63,122,-11,42,-5,26,-41,-33,15,-5, 
  /* [78][0][][] */ 5,8,21,-127,33,-31,-53,51,6,-33,18,-40,1,103,36,75, 
  /* [79][0][][] */ 5,-95,-70,-53,-85,6,39,-73,127,-15,-2,57,10,18,67,-40, 
  /* [80][0][][] */ -56,38,67,-96,5,-52,24,-70,-86,20,-31,-127,9,49,124,2, 
  /* [81][0][][] */ -35,41,-110,21,55,-127,-20,62,-17,-35,35,-5,33,-12,35,2, 
  /* [82][0][][] */ 127,-18,-1,23,1,-108,-13,8,-19,0,-119,12,84,-6,-21,29, 
  /* [83][0][][] */ -50,91,-111,-95,-30,-17,39,-115,55,59,-37,-127,15,57,71,116, 
  /* [84][0][][] */ -15,-1,94,-40,-11,-23,90,-127,-8,73,-20,-15,77,41,46,-20, 
  /* [85][0][][] */ -71,121,31,-127,-93,-34,-38,18,-63,7,-84,20,23,-26,-85,-24, 
  /* [86][0][][] */ -18,8,-62,1,6,-41,127,20,-4,-65,7,-11,4,24,111,-12, 
  /* [87][0][][] */ -20,-54,15,-127,9,-18,60,-28,10,24,-10,-114,-17,11,15,-43, 
  /* [88][0][][] */ 117,12,24,-16,46,-104,19,45,-59,-5,-127,-75,25,18,80,28, 
  /* [89][0][][] */ 38,-18,-18,-33,25,1,-33,-13,-36,32,25,-51,127,2,18,-52, 
  /* [90][0][][] */ 15,-50,14,-69,72,7,-62,82,67,-105,-17,-3,-32,127,26,-125, 
  /* [91][0][][] */ -60,-22,-31,-48,15,-27,-13,-98,26,63,4,-127,-30,-31,16,10, 
  /* [92][0][][] */ -18,12,52,20,11,-127,-4,0,-10,-9,-14,-14,0,0,29,7, 
  /* [93][0][][] */ 5,-21,127,-27,-67,47,25,-33,-2,30,-44,6,7,-3,7,-8, 
  /* [94][0][][] */ 23,13,-3,-15,9,1,-2,23,-32,-17,3,-23,127,-28,28,-25, 
  /* [95][0][][] */ 127,84,-5,22,-93,-23,-63,-6,-43,-24,93,-52,-28,46,97,-56, 
};
const TfArray<4, int> tensor_dimension7 = { 4, { 96,1,1,16 } };
const TfArray<96, float> quant7_scale = { 96, { 0.0012327443109825253, 0.0010056020691990852, 0.00066388130653649569, 0.001144115230999887, 0.00060210947412997484, 0.00090469251153990626, 0.00054269842803478241, 0.00099150813184678555, 0.00055512593826279044, 0.0012736081844195724, 0.00054425513371825218, 0.00094605347840115428, 0.00055332027841359377, 0.0030470122583210468, 0.00055866996990516782, 0.00072429433930665255, 0.00033668201649561524, 0.00089154724264517426, 0.00095632864395156503, 0.0010248995386064053, 0.00034290319308638573, 0.00031713186763226986, 0.0004892761935479939, 0.00022588737192563713, 0.00046345181181095541, 0.001447629532776773, 0.0022644742857664824, 0.0007831924594938755, 0.00057592237135395408, 0.0013179888483136892, 0.00077199074439704418, 0.00079757208004593849, 0.00047687170444987714, 0.0007564264815300703, 0.00082614622078835964, 0.00065821770112961531, 0.00062855088617652655, 0.0010092051234096289, 0.00094176066340878606, 0.0012842228170484304, 0.00041375827277079225, 0.0011033618357032537, 0.00067721406230702996, 0.00070687377592548728, 0.0010674612130969763, 0.00062390975654125214, 0.00093649228801950812, 0.00069339218316599727, 0.00063956284429877996, 0.00078457145718857646, 0.00061996618751436472, 0.00067585281794890761, 0.0012360382825136185, 0.00097270304104313254, 0.00071427086368203163, 0.0011074945796281099, 0.0010154158808290958, 0.00058175763115286827, 0.00066244712797924876, 0.00036566943163052201, 0.0019748511258512735, 0.0012632068246603012, 0.00048034099745564163, 0.00098774756770581007, 0.00089063926134258509, 0.00063098181271925569, 0.00037443978362716734, 0.00078519707312807441, 0.0015506782801821828, 0.0009834247175604105, 0.00070892431540414691, 0.00047807465307414532, 0.001957273343577981, 0.0010069134877994657, 0.0008265782380476594, 0.00041921384399756789, 0.00079296558396890759, 0.00028068342362530529, 0.0003799252153839916, 0.00061108742374926805, 0.00047939573414623737, 0.00041689176578074694, 0.00050968164578080177, 0.0005753610166721046, 0.00029575356165878475, 0.00041329950909130275, 0.0011236247373744845, 0.00055076921125873923, 0.00031142981606535614, 0.0012625256786122918, 0.00064638623734936118, 0.00059297448024153709, 0.0007673553773202002, 0.0013359882868826389, 0.001086072064936161, 0.00060656486311927438, } };
const TfLiteAffineQuantization quant7 = { (TfLiteFloatArray*)&quant7_scale, (TfLiteIntArray*)&g0::quant6_zero, 0 };
const MODEL_SECTION(EI_MODEL_SECTION) ALIGN(16) int32_t tensor_data8[16] = { -9361, 13676, -7119, -14528, -15957, 18647, 38132, -49375, -4217, 2330, 19614, 29402, -3196, 5838, -11552, 11406, };
const TfArray<1, int> tensor_dimension8 = { 1, { 16 } };
const TfArray<16, float> quant8_scale = { 16, { 0.00078446522820740938, 0.0005745852249674499, 0.0001847525272751227, 0.00024059756833594292, 0.00048904260620474815, 0.00032914665644057095, 0.00037131883436813951, 0.00025899632601067424, 0.00043521024053916335, 0.00032944857957772911, 0.00073106674244627357, 0.00047372592962346971, 0.00078164372825995088, 0.00022103135415818542, 0.00056761695304885507, 0.00047312621609307826, } };
const TfArray<16, int> quant8_zero = { 16, { 0,0,0,0,0,0,0,0,0,0,0,0,0,0,0,0 } };
const TfLiteAffineQuantization quant8 = { (TfLiteFloatArray*)&quant8_scale, (TfLiteIntArray*)&quant8_zero, 0 };
const MODEL_SECTION(EI_MODEL_SECTION) ALIGN(16) int8_t tensor_data9[16*1*1*96] = { 
  /* [0][0][][] */ -10,-19,23,-33,20,6,-32,18,15,-4,-1,-1,-1,-3,-35,-6,3,7,-6,4,0,-18,-5,15,10,3,1,127,38,-32,52,-2,4,14,10,14,-10,13,-21,-6,-17,14,6,35,15,2,14,2,28,-11,-7,12,5,-19,-5,76,17,5,-32,-21,2,14,16,-22,-35,-57,-15,37,19,3,31,-21,-9,-24,0,-5,-39,22,-10,5,-4,-23,14,19,4,-11,3,-89,10,-11,12,-28,41,-30,-41,-17, 
  /* [1][0][][] */ 24,-62,-78,-47,127,-3,63,40,-5,-102,-27,-43,-25,-32,-44,76,-40,16,32,30,1,-13,12,-24,35,0,-8,-73,33,-18,-58,52,-11,39,7,-25,-10,-20,-21,9,-15,24,-39,1,-26,70,19,13,19,-56,-8,-60,-32,44,64,12,-18,-29,-39,-24,52,-58,10,-38,-53,92,-13,-23,-11,-34,-23,4,45,-69,-51,30,39,-43,-1,14,-2,-10,20,4,-32,29,-23,14,12,-62,14,-14,33,2,44,106, 
  /* [2][0][][] */ -32,102,-66,-23,52,125,51,99,29,-127,27,-33,46,-5,25,-96,-15,-28,-49,42,61,65,55,52,24,-34,-5,-60,74,-16,83,-113,31,35,-44,90,-125,-36,110,99,-43,-60,37,-63,37,-76,-10,74,0,59,9,5,71,-58,-27,80,24,-16,16,-5,27,57,125,-57,-27,-68,-17,-10,-57,-36,-20,-60,-84,-66,-1,109,30,67,37,6,37,-40,21,-19,-34,85,-37,53,-18,37,18,-123,-63,-64,-81,13, 
  /* [3][0][][] */ 75,20,103,1,5,-51,13,1,-9,-44,13,-1,10,31,14,37,4,6,18,4,96,7,27,-5,47,-26,-16,20,16,50,14,34,-103,-9,18,48,8,-2,9,98,-49,-27,76,-27,14,36,-42,-104,-61,-4,-37,41,2,-93,-43,36,-38,84,53,22,16,127,-52,-17,13,69,-34,-76,36,-40,-1,-35,47,-32,68,-17,-11,25,87,32,-14,-82,24,-13,-50,50,-2,38,15,64,-6,61,21,68,36,-69, 
  /* [4][0][][] */ 16,-4,45,-20,127,37,2,-6,-41,-50,-13,-31,-47,-2,-26,42,34,-56,-28,66,-46,-22,47,1,25,-26,8,-38,16,-6,48,-1,78,38,-14,20,21,-4,-2,13,-4,23,-1,-31,5,-71,0,3,23,14,-3,4,-28,-7,16,-23,46,-10,-52,30,18,37,55,12,33,49,-29,-15,-22,-19,52,73,9,-41,-31,25,29,56,60,-18,1,-23,16,-5,-57,23,25,41,-75,31,16,-62,9,-9,-7,-1, 
  /* [5][0][][] */ 5,-26,11,12,11,-1,58,-15,-13,-43,2,2,3,28,-10,-13,-8,-9,12,0,43,45,-68,74,16,-24,7,-104,6,33,47,27,1,-1,1,-28,32,37,47,15,-30,0,29,-26,0,-12,10,-8,-12,-18,22,-12,-20,-59,2,-40,5,10,-39,35,73,36,35,38,-10,33,13,83,13,79,12,12,2,23,-7,87,-54,5,3,17,-6,-9,-14,18,0,28,-18,127,7,33,10,-59,-2,39,-56,12, 
  /* [6][0][][] */ 27,-70,44,-64,-32,17,69,42,28,-23,23,-60,-43,-42,-33,32,20,-9,-31,28,-90,33,-11,53,-9,-5,-5,-53,-2,-5,72,-8,58,34,39,14,-57,-34,36,-124,-25,65,12,-20,2,-26,-29,11,-14,-2,-46,61,-34,-35,-15,-53,19,-63,-31,6,-30,91,28,-51,77,-51,12,-22,6,-28,127,-12,-45,23,-42,19,-50,-30,-5,-17,28,37,18,-17,-15,30,49,3,-6,3,28,-90,2,8,-69,-2, 
  /* [7][0][][] */ 1,127,2,29,121,37,34,-54,-32,-31,22,-5,-53,43,49,42,-3,-44,1,27,63,-35,38,-36,-26,39,16,13,9,-22,-2,1,35,-30,-55,4,36,10,-26,91,-33,26,5,40,-27,21,14,-37,-35,-17,22,11,56,-48,-52,56,-2,36,2,-46,-33,-30,-66,6,-70,88,-40,-89,-18,5,-2,84,-5,-51,19,-22,66,41,63,-54,-47,-59,-15,-10,-27,41,-28,1,-30,23,-70,17,-52,-18,46,-24, 
  /* [8][0][][] */ 11,-14,127,16,-110,-11,66,14,43,70,51,38,16,15,18,-53,-43,30,-15,37,-75,37,-124,30,34,-16,29,-12,38,-29,31,38,61,3,-19,15,-26,-1,68,17,-42,15,75,-29,-31,-56,8,-12,-93,-49,10,73,-61,-12,-36,61,33,-44,-77,-6,8,60,-16,21,14,26,-2,-44,53,-71,-6,-13,31,78,76,0,-28,-36,-21,26,-67,8,-13,-30,19,44,83,25,24,6,31,-4,28,-1,-8,10, 
  /* [9][0][][] */ 43,-51,35,4,38,23,-3,0,4,-18,59,71,-8,-3,51,-127,2,-10,-38,17,-67,10,12,-11,6,36,-30,59,-3,-27,24,3,20,3,-53,63,30,-5,-27,64,-2,-33,-8,-12,-11,-44,-64,-11,10,19,-15,-70,47,-16,-13,7,11,39,10,7,2,-5,3,78,-83,-40,8,-4,-1,28,-25,-66,21,3,40,23,5,-53,-12,10,-5,-44,2,23,32,-11,7,-36,-7,1,-39,-9,-46,-28,-5,-27, 
  /* [10][0][][] */ -39,-26,-28,1,-8,16,74,-4,41,15,33,1,21,3,4,-18,11,11,-25,-10,-18,4,13,30,6,-3,-9,-127,36,-42,61,-33,13,35,7,3,-11,26,5,2,-20,-28,26,-49,16,-6,39,16,3,16,-29,-15,-30,-21,9,-38,19,26,-9,-25,52,8,19,9,-27,84,-3,-23,38,-31,24,-29,-33,6,31,62,2,45,-33,21,-28,19,-5,25,0,-33,-6,116,3,-1,19,12,28,-14,59,-41, 
  /* [11][0][][] */ -86,31,42,15,-14,-84,-20,21,-32,-16,13,30,49,18,-50,-56,27,18,-80,-64,33,45,-54,-18,60,-6,66,-2,-30,26,-30,-8,-19,-8,-11,18,15,31,46,32,-21,-6,1,-29,73,4,86,31,52,63,-11,51,33,-127,9,15,-104,-23,-36,-50,-11,25,16,32,-19,-49,41,-10,-5,26,-18,20,-24,-10,50,4,-51,87,-104,54,-46,-10,-67,-84,118,61,29,-23,29,76,-35,-88,-51,67,10,-21, 
  /* [12][0][][] */ 4,5,5,-16,33,21,-4,-6,-22,7,10,-1,3,-20,25,-30,-23,-3,-12,9,-33,2,-9,26,-1,14,0,51,0,-2,1,23,-13,20,-25,-5,-22,-8,10,-24,-2,6,-5,-16,-6,-20,-2,4,8,-5,-10,-24,-18,5,-7,-20,12,-17,-8,18,-16,14,25,18,6,-54,6,34,10,-127,-6,35,-5,12,5,47,5,-10,-37,4,-7,-3,-23,2,26,0,22,-43,15,7,-5,-44,-9,3,-36,14, 
  /* [13][0][][] */ -39,28,42,-9,-44,-68,-4,38,-39,-27,88,40,51,-7,-44,-55,-40,52,-47,-13,-7,-14,49,-42,65,105,-20,26,17,-45,-11,-83,-89,-2,27,7,-32,5,42,-23,-39,101,29,17,36,16,-14,4,59,-9,36,94,31,-37,80,-35,9,65,44,14,12,62,-11,30,17,-24,18,14,14,58,44,-127,31,8,-77,-7,71,38,-58,-45,97,-5,13,-32,39,-43,104,-5,-26,-21,-23,-63,56,-35,-55,32, 
  /* [14][0][][] */ -53,33,-70,-37,45,19,-18,-16,-89,8,-9,12,-43,-59,-61,32,-73,-12,45,-16,41,-47,21,-119,-34,25,-24,-13,17,-10,-30,-47,-47,-28,18,-8,8,-21,-50,27,36,47,-66,29,-45,48,36,4,127,-11,16,-21,23,93,-83,0,-30,26,-68,-10,7,-16,-2,11,2,60,-18,23,-57,4,62,20,39,-35,-20,19,63,-76,-5,-94,20,-34,3,35,8,-110,-47,30,-27,15,16,123,21,26,43,-21, 
  /* [15][0][][] */ -23,-69,-21,-51,10,22,-11,-55,-25,25,-4,-40,26,-17,58,10,-98,11,-14,6,-17,7,-56,-63,-28,-6,-7,2,-22,-32,58,-76,-18,26,8,-13,-20,22,-74,-26,25,-89,-9,45,-55,-59,53,22,44,-5,-15,-127,26,32,1,32,-15,-3,-3,48,9,9,52,15,9,4,9,-8,-13,34,5,35,-19,-15,2,-54,-22,-7,4,0,-12,54,3,68,9,-56,-6,-38,-27,64,33,110,-55,-16,21,-14, 
};
const TfArray<4, int> tensor_dimension9 = { 4, { 16,1,1,96 } };
const TfArray<16, float> quant9_scale = { 16, { 0.033339772373437881, 0.024419872090220451, 0.0078519824892282486, 0.010225396603345871, 0.02078431099653244, 0.013988732360303402, 0.01578105054795742, 0.011007343418896198, 0.018496435135602951, 0.014001564122736454, 0.031070336699485779, 0.020133351907134056, 0.033219859004020691, 0.0093938326463103294, 0.024123720824718475, 0.02010786347091198, } };
const TfLiteAffineQuantization quant9 = { (TfLiteFloatArray*)&quant9_scale, (TfLiteIntArray*)&g0::quant8_zero, 0 };
const MODEL_SECTION(EI_MODEL_SECTION) ALIGN(16) int32_t tensor_data10[96] = { 25494, 60505, 652, -1974, 13874, -4446, -84, 284, 5708, 14476, -1088, -2153, 1753, 11451, 4674, -12203, -4107, -485, 921, 15183, -9759, 20642, -4522, 6580, 26345, -347, -4154, 14584, 16030, -21825, 1688, 23342, 26389, -10246, 872, 1556, 859, -882, 1350, -7714, -3970, -2561, -7332, 459, 31318, -1405, 12184, -2896, -15141, -526, 169, -551, -3356, 18261, -5954, 16801, 27297, -860, 35903, -94, -7723, -981, 1422, 777, -144, 11656, -3770, -7161, -55, 1990, -107, -5993, 1733, 409, -3311, -7708, 1336, -417, 32719, -7995, -8169, -12563, 11, 472, 52869, -13770, -7680, -27993, -551, 9106, -894, 53167, 425, -2932, -944, -38, };
const TfArray<96, float> quant10_scale = { 96, { 9.479044092586264e-05, 9.7701842605601996e-05, 0.00014384918904397637, 0.00022369599901139736, 0.0002766908728517592, 0.00020048087753821164, 8.9416964328847826e-05, 8.5957486589904875e-05, 0.00021180215117055923, 0.0001722189481370151, 0.00025473281857557595, 0.00011855003685923293, 0.00030096451519057155, 0.00019479039474390447, 0.000359197030775249, 0.00011772561992984265, 0.00024052971275523305, 0.00022279816039372236, 0.00020483446132857352, 7.1193950134329498e-05, 8.254793647211045e-05, 4.0692146285437047e-05, 0.00013982786913402379, 0.00011331412679282948, 7.9903009464032948e-05, 0.00020216005214024335, 0.00018454468226991594, 0.00021706298866774887, 7.7830525697208941e-05, 0.00050635554362088442, 0.0003881275188177824, 0.00021383281273301691, 9.4067414465826005e-05, 0.0001480280770920217, 0.00031717127421870828, 0.00046854474931024015, 0.00042867270531132817, 0.00027584543568082154, 0.00023894128389656544, 8.7230670033022761e-05, 0.00023291930847335607, 0.00022653325868304819, 0.00035473352181725204, 0.0001409496326232329, 0.00030323993996717036, 0.00010273617954226211, 0.00011816674668807536, 0.00028178663342259824, 0.0005776785546913743, 0.0001582947006681934, 0.00048603661707602441, 0.00015806435840204358, 0.0001510444562882185, 0.00016181300452444702, 0.00014412436576094478, 0.00011191252997377887, 9.5341107225976884e-05, 0.00051955797243863344, 3.7532441638177261e-05, 0.00022730398632120341, 0.00032599011319689453, 0.00037925492506474257, 0.00013927830150350928, 0.00016569528088439256, 0.00012352644989732653, 0.00015014575910754502, 0.00026808810071088374, 0.00031861214665696025, 0.00023648013302590698, 0.00013629767636302859, 0.00023787393001839519, 0.00010371823009336367, 0.00033437376259826124, 0.00016722524014767259, 0.00019815217819996178, 0.00023453214089386165, 0.00012828812759835273, 6.8896857555955648e-05, 7.2470706072635949e-05, 0.00018541171448305249, 0.00020720325119327754, 0.00022213281772565097, 0.00022584082034882158, 0.00030064582824707031, 6.9651541707571596e-05, 9.5697767392266542e-05, 9.4370479928329587e-05, 0.00047283971798606217, 0.00041036625043489039, 0.00013808907533530146, 0.00042883504647761583, 2.4500010113115422e-05, 0.00017752581334207207, 0.00010308781202184036, 0.00054154574172571301, 0.0002897747908718884, } };
const TfLiteAffineQuantization quant10 = { (TfLiteFloatArray*)&quant10_scale, (TfLiteIntArray*)&g0::quant6_zero, 0 };
const MODEL_SECTION(EI_MODEL_SECTION) ALIGN(16) int8_t tensor_data11[1*3*3*96] = { 
  /* [0][0][][] */ -46,-74,-6,127,21,72,99,-60,-13,-21,-20,-1,-30,-12,37,12,-10,-42,23,22,16,-127,127,10,-78,3,50,-30,-127,-127,38,23,10,26,58,-21,-36,-7,33,17,-17,31,-108,70,24,-66,40,48,-20,53,-23,20,5,-14,26,45,-94,-48,-62,-19,-10,-2,6,40,66,-26,84,12,-15,19,20,127,22,22,28,4,-11,18,127,-2,-14,18,-26,21,120,28,-84,-15,-4,-31,-18,-64,0,-24,-15,26, 127,-127,73,108,-45,127,50,-121,70,1,-22,127,127,-99,-13,29,12,127,127,-113,127,-79,82,65,-127,-111,-70,-32,-52,49,-61,-21,-97,55,-127,-88,-46,-12,-51,79,-1,127,127,77,-55,-116,-105,-50,-16,-127,40,85,60,-35,52,76,-51,41,-80,-114,-45,-38,-61,62,71,-59,32,28,-86,43,-18,85,114,127,14,21,0,64,-29,53,66,127,127,-23,-9,75,-121,127,-127,-95,-1,-120,-91,-127,-37,107, -75,-20,27,-78,12,-6,82,-6,81,-33,-32,29,-18,-18,-8,1,-10,-13,8,-5,-16,-106,36,8,-94,106,3,-54,117,52,-15,8,-2,11,14,-32,-14,36,20,42,25,14,-122,64,15,-25,35,14,-16,14,-17,4,-3,-11,4,19,-69,3,-33,54,-1,44,39,-4,-8,-41,-25,23,2,15,-2,38,10,-25,-2,-1,-8,-7,-75,4,-21,-13,-16,2,-112,14,-37,-22,-60,28,-33,-67,29,-24,-14,2, 
  /* [0][1][][] */ -66,-74,67,-35,-48,78,6,127,-50,-20,-3,-115,22,-112,78,30,-5,-62,-23,90,63,-69,47,42,-108,-7,127,-23,-28,68,121,-108,-127,92,-84,-56,-40,34,-23,116,-56,-22,-5,44,-47,127,-20,70,15,96,25,-1,27,-53,35,28,127,126,-70,-88,127,-38,-40,127,69,-36,-14,1,127,47,127,94,-42,102,3,14,13,17,-26,13,-41,120,-78,111,6,35,-65,31,66,-127,-29,-5,127,-68,-22,0, 65,123,53,-112,127,78,90,38,-127,127,127,-33,-66,-127,-127,127,127,-63,-124,-52,106,89,-123,127,-114,-89,-47,127,-127,115,-127,-127,-87,127,109,127,127,-127,-100,127,-68,-91,108,-127,-127,-35,-127,-127,127,-113,89,44,127,127,127,-127,100,-127,-127,127,17,-74,-127,-104,-127,127,-127,127,-124,-127,-108,-77,-127,-82,127,127,-127,127,-72,127,127,24,-40,-127,59,127,91,44,119,13,127,8,-68,38,127,-127, -56,-16,-53,40,-58,-80,37,-31,18,-33,-34,92,4,79,15,20,-6,65,-8,126,15,-74,-39,13,-77,109,-76,-19,-74,-15,16,-66,-75,47,6,-18,-30,46,-64,89,127,-3,-42,28,-42,-60,16,49,9,121,-11,8,-19,-72,9,18,93,1,1,23,-42,127,98,-52,-44,12,41,-9,-78,122,-18,-79,-2,-54,-12,-20,26,14,78,-32,-69,-40,57,14,-51,-12,66,22,10,58,-46,16,-43,102,-24,-2, 
  /* [0][2][][] */ -69,-4,-7,-19,11,-40,77,33,54,-30,-37,-6,10,4,-25,14,-9,63,1,1,-33,-92,6,1,-27,-39,35,-69,88,41,28,21,13,4,-9,-46,-14,38,5,33,-20,-3,-67,108,2,39,13,39,-15,-24,14,-23,40,-13,20,19,-75,30,-15,13,19,-5,-25,-1,-1,-51,-39,13,-36,25,27,35,15,-20,21,9,22,8,-66,-5,-3,-1,14,14,-127,23,11,-43,-69,-49,-27,-87,9,59,-25,-5, 120,27,-127,-33,-73,-9,58,38,-68,-30,-21,-107,-84,91,-12,70,1,-51,-13,-127,84,-52,-37,19,-102,127,-51,20,-36,-21,-7,-8,-72,37,28,2,-25,-27,127,114,10,-12,73,-29,-42,81,-67,-41,-33,-2,-127,-127,-24,-33,7,39,-68,-1,2,39,-7,-18,13,-48,-54,31,72,-23,118,107,-24,-59,13,-57,-1,15,102,8,57,20,21,-95,-50,3,0,31,127,38,-66,41,-18,-127,41,81,-12,33, -56,5,-25,29,14,-50,-127,11,-10,-11,-20,4,9,-35,20,25,-11,-12,2,15,-29,-97,22,19,5,-68,20,2,-49,-40,-7,11,35,-1,-4,-28,-34,6,45,6,20,-2,-51,-29,0,64,23,18,-8,2,8,-11,27,-6,9,-3,-68,-12,4,-38,-15,12,101,-10,34,-6,8,26,-4,17,-3,26,-15,13,3,16,45,3,82,-11,9,-3,-7,-18,59,16,42,-39,50,43,-20,-79,-8,7,-13,-10, 
};
const TfArray<4, int> tensor_dimension11 = { 4, { 1,3,3,96 } };
const TfArray<96, float> quant11_scale = { 96, { 0.0040285936556756496, 0.0041523282416164875, 0.0061135902069509029, 0.0095070796087384224, 0.011759362183511257, 0.0085204374045133591, 0.0038002210203558207, 0.0036531931255012751, 0.0090015912428498268, 0.0073193050920963287, 0.010826144367456436, 0.0050383764319121838, 0.012790991924703121, 0.0082785915583372116, 0.0152658736333251, 0.0050033386796712875, 0.010222512297332287, 0.009468921460211277, 0.0087054641917347908, 0.0030257427133619785, 0.0035082872491329908, 0.0017294161953032017, 0.0059426845982670784, 0.0048158504068851471, 0.0033958777785301208, 0.0085918018594384193, 0.0078431488946080208, 0.0092251766473054886, 0.003307797247543931, 0.021520109847187996, 0.016495419666171074, 0.0090878941118717194, 0.0039978651329874992, 0.0062911934219300747, 0.013479779474437237, 0.019913151860237122, 0.018218589946627617, 0.011723430827260017, 0.010155004449188709, 0.0037073034327477217, 0.0098990704864263535, 0.0096276635304093361, 0.015076174400746822, 0.0059903594665229321, 0.012887696735560894, 0.0043662874959409237, 0.0050220866687595844, 0.011975931935012341, 0.024551337584853172, 0.0067275245673954487, 0.020656555891036987, 0.0067177349701523781, 0.006419389508664608, 0.0068770525977015495, 0.0061252852901816368, 0.0047562825493514538, 0.004051996860653162, 0.022081213071942329, 0.0015951287932693958, 0.0096604190766811371, 0.013854580000042915, 0.016118334606289864, 0.0059193274937570095, 0.0070420494303107262, 0.0052498737350106239, 0.0063811945728957653, 0.011393744498491287, 0.013541015796363354, 0.010050405748188496, 0.0057926508598029613, 0.010109641589224339, 0.0044080247171223164, 0.01421088445931673, 0.0071070725098252296, 0.0084214676171541214, 0.0099676158279180527, 0.005452245008200407, 0.0029281163588166237, 0.0030800048261880875, 0.0078799976035952568, 0.0088061382994055748, 0.0094406446442008018, 0.0095982346683740616, 0.012777447700500488, 0.0029601904097944498, 0.0040671550668776035, 0.0040107453241944313, 0.020095687359571457, 0.017440564930438995, 0.0058687855489552021, 0.018225489184260368, 0.0010412504198029637, 0.0075448467396199703, 0.004381231963634491, 0.023015692830085754, 0.012315427884459496, } };
const TfLiteAffineQuantization quant11 = { (TfLiteFloatArray*)&quant11_scale, (TfLiteIntArray*)&g0::quant6_zero, 3 };
const MODEL_SECTION(EI_MODEL_SECTION) ALIGN(16) int32_t tensor_data12[96] = { 1643, 5348, 8151, 23668, 23629, -4630, -2085, 6747, 28498, -3824, 8918, 3289, 8839, 17097, 21552, 652, 3899, 6993, 19626, 4588, -1611, 747, 11998, -1517, 3967, -322, 10869, 9054, 5521, 31456, 66107, 15166, 7714, -655, 20579, 2474, 2825, 4571, 22598, -1368, 11182, 10979, 49647, -4678, 51067, 5255, 5527, 20789, 47043, 8467, -297, 9837, -2716, -454, -2240, 4913, -348, 18302, 5518, 12427, 9651, 14956, 9768, 5702, 10426, 9572, 5251, -7626, 9708, -5465, 5098, 12431, 41527, 4632, -2858, -5452, 7544, 846, 2248, -1669, 12897, 14386, 5186, 18013, 2951, -499, 18878, 162340, 14553, 12209, 8011, -176, 8713, 6891, 4182, 10831, };
const TfArray<96, float> quant12_scale = { 96, { 0.00027805459103547037, 0.00027417068486101925, 0.00021606095833703876, 9.8347707535140216e-05, 0.0001276030670851469, 0.00022391878883354366, 0.0004135936324018985, 0.00024953563115559518, 8.3391212683636695e-05, 0.00036132775130681694, 0.00030357131618075073, 0.00022256516967900097, 0.00014565669698640704, 0.00013632452464662492, 0.00010953900346066803, 0.00045982690062373877, 0.00014550297055393457, 0.00017406746337655932, 0.00011226984497625381, 0.00023436709307134151, 0.00017283939814660698, 0.00044966567656956613, 0.00016877923917490989, 0.00049116474110633135, 0.0006552591803483665, 0.00019888987299054861, 0.00021400708646979183, 0.00016887864330783486, 0.00030411704210564494, 0.0001109349905163981, 4.2589006625348702e-05, 0.00016239138494711369, 0.0002195414126617834, 0.00044642775901593268, 9.9345663329586387e-05, 0.00025519300834275782, 0.00022017340234015137, 0.00030728679848834872, 0.00011829141294583678, 0.00057124410523101687, 0.00016827258514240384, 0.00015215048915706575, 5.4636326240142807e-05, 0.00024857398238964379, 6.4023966842796654e-05, 0.00029590862686745822, 0.00032151455525308847, 0.00013068206317257136, 8.8028253230731934e-05, 0.00025013490812852979, 0.00032742315670475364, 0.00018103918409906328, 0.00038851512363180518, 0.00019418871670495719, 0.00043438360444270074, 0.00021414678485598415, 0.00033430589246563613, 0.00010408155503682792, 0.00036966006155125797, 0.00011745404481189325, 0.0001674860977800563, 9.0626002929639071e-05, 0.00014561657735612243, 0.0001737931597745046, 0.00024153671984095126, 0.00018744883709587157, 0.00023850647266954184, 0.00017519135144539177, 0.00017282148473896086, 0.00015105659258551896, 0.00021821566042490304, 0.0001329769438598305, 5.1568491471698508e-05, 0.00022474181605502963, 0.00052921060705557466, 0.00025054949219338596, 0.00022200131206773221, 0.00023547152522951365, 0.00031757127726450562, 0.00024378419038839638, 0.0001577612420078367, 0.00011079277464887127, 0.00016866400255821645, 0.0001091361918952316, 0.00040400854777544737, 0.00024447747273370624, 0.00012165521911811084, 2.4232738724094816e-05, 9.4275812443811446e-05, 0.00018741247185971588, 0.00016298385162372142, 0.00032978225499391556, 0.00017230171943083405, 0.0002220540918642655, 0.00022276661184150726, 0.0001541277306387201, } };
const TfLiteAffineQuantization quant12 = { (TfLiteFloatArray*)&quant12_scale, (TfLiteIntArray*)&g0::quant6_zero, 0 };
const MODEL_SECTION(EI_MODEL_SECTION) ALIGN(16) int8_t tensor_data13[96*1*1*16] = { 
  /* [0][0][][] */ -6,17,3,9,13,68,25,25,88,-10,-40,127,-29,-64,43,-111, 
  /* [1][0][][] */ 56,38,-30,-24,44,-47,71,-127,8,48,-47,-35,31,-18,37,22, 
  /* [2][0][][] */ -25,38,-10,19,9,8,3,74,-44,26,127,14,-28,41,0,4, 
  /* [3][0][][] */ -76,22,37,69,-86,83,127,92,68,89,-76,17,15,-77,-29,-64, 
  /* [4][0][][] */ 68,-127,37,127,-81,72,-37,-1,48,-31,-57,20,-15,38,-73,-32, 
  /* [5][0][][] */ 33,-39,100,-34,26,-21,2,30,-8,114,-124,-127,-8,29,-45,-17, 
  /* [6][0][][] */ 45,-9,28,-13,10,6,-62,-48,-1,18,3,-16,127,-6,15,8, 
  /* [7][0][][] */ 14,5,127,-22,-29,-20,-33,-36,-9,25,-66,-54,30,-4,51,-15, 
  /* [8][0][][] */ 74,15,69,35,-18,127,-12,-9,17,0,-17,-83,-68,-49,-107,-41, 
  /* [9][0][][] */ 3,-64,25,111,22,-107,56,15,78,14,70,-17,-127,56,-57,-10, 
  /* [10][0][][] */ -38,-65,-19,-28,-75,7,-29,99,100,52,52,-34,-76,9,127,20, 
  /* [11][0][][] */ -34,16,0,-127,1,-74,29,-118,-62,56,25,-47,44,-8,-40,-50, 
  /* [12][0][][] */ -50,-5,-26,-63,-48,-22,-99,5,0,-101,47,68,-33,127,55,75, 
  /* [13][0][][] */ -42,-99,-113,37,51,-29,-103,-64,25,127,-22,-50,59,24,102,5, 
  /* [14][0][][] */ -9,-53,69,1,27,72,18,127,19,34,17,-37,41,55,-67,90, 
  /* [15][0][][] */ 55,-9,27,45,9,22,84,-9,-13,-127,-26,-17,-3,-47,2,-1, 
  /* [16][0][][] */ 75,-62,-44,40,26,17,21,-49,99,55,69,4,18,100,64,127, 
  /* [17][0][][] */ -40,-38,34,127,54,57,-23,-27,93,-36,-1,-41,25,-25,-20,1, 
  /* [18][0][][] */ 36,-18,-89,30,-110,-127,-62,103,-117,-106,-8,-118,52,-56,63,9, 
  /* [19][0][][] */ 18,-82,35,-12,99,-2,-127,3,57,-25,82,-10,3,77,-6,54, 
  /* [20][0][][] */ 8,19,52,-127,3,-22,-17,-17,27,13,117,20,14,-39,-124,116, 
  /* [21][0][][] */ -50,-82,43,-71,0,-56,-66,-69,-56,81,-49,76,-127,-45,104,-67, 
  /* [22][0][][] */ 23,-41,1,3,4,-127,-20,20,-94,16,-18,-26,-11,27,90,-50, 
  /* [23][0][][] */ 8,5,25,2,1,16,-5,4,14,19,20,-7,127,-15,6,-36, 
  /* [24][0][][] */ -14,-15,-25,-12,-21,14,1,7,-79,-10,-23,-127,8,-121,29,-22, 
  /* [25][0][][] */ -93,21,-29,-26,100,-37,-40,-81,4,40,66,-127,0,45,-41,-81, 
  /* [26][0][][] */ -4,11,-26,-77,54,-12,38,62,92,-69,21,-20,-73,127,3,22, 
  /* [27][0][][] */ 77,0,17,-23,-29,-35,-24,-17,-53,7,-127,41,-30,-4,2,27, 
  /* [28][0][][] */ -127,-56,-122,-97,49,3,110,-58,-32,18,-116,67,124,17,-20,52, 
  /* [29][0][][] */ -53,-12,-15,127,-40,-6,0,-38,16,10,-72,51,33,-67,25,-35, 
  /* [30][0][][] */ -26,53,105,-38,18,57,-127,120,-119,-95,103,-14,-81,26,-101,82, 
  /* [31][0][][] */ 0,-102,16,-47,13,-66,30,-50,2,41,119,14,-52,105,83,127, 
  /* [32][0][][] */ 19,31,-27,38,-127,6,-62,-20,-67,-39,-52,46,23,47,45,62, 
  /* [33][0][][] */ 21,17,-8,127,-6,3,15,-31,-66,49,51,-20,-26,-22,-12,81, 
  /* [34][0][][] */ 127,-51,64,6,30,-53,-101,13,44,109,-69,13,-8,20,20,-10, 
  /* [35][0][][] */ 21,-25,-25,-3,-8,-127,-32,8,-50,-22,-23,12,48,7,48,28, 
  /* [36][0][][] */ -20,45,-127,-22,12,10,-14,36,-24,0,15,17,18,17,-49,-7, 
  /* [37][0][][] */ 7,-18,127,-3,-69,29,-9,-50,-22,-26,-95,-12,15,-17,31,16, 
  /* [38][0][][] */ -121,29,29,0,18,78,33,0,-32,-24,127,-2,-23,17,-18,28, 
  /* [39][0][][] */ -34,0,30,40,10,-17,-127,87,16,35,-15,-46,6,-39,-10,25, 
  /* [40][0][][] */ -31,-23,-21,93,-50,25,62,94,-51,-33,-127,14,-4,-3,-21,-26, 
  /* [41][0][][] */ 12,57,-45,-26,-12,-28,127,107,-60,49,-41,5,-11,71,45,-7, 
  /* [42][0][][] */ -127,-106,-60,36,-12,117,-123,74,-12,-112,80,12,-62,-42,-91,-21, 
  /* [43][0][][] */ -39,15,76,-32,70,87,-59,-106,13,49,-25,7,-127,-19,16,-10, 
  /* [44][0][][] */ -10,-23,-17,1,14,-26,-82,-51,127,13,-1,40,10,119,112,25, 
  /* [45][0][][] */ -46,-127,11,-7,19,-4,-20,68,-25,-12,-61,-13,23,80,13,97, 
  /* [46][0][][] */ -22,18,-19,65,-91,-28,9,-73,-127,43,-67,-26,13,-9,29,-21, 
  /* [47][0][][] */ -22,61,-106,127,54,61,44,-58,40,67,83,90,-45,12,15,-11, 
  /* [48][0][][] */ -7,-5,48,-127,37,-28,-18,-44,-35,95,49,-51,-59,47,116,18, 
  /* [49][0][][] */ -106,46,63,67,-34,27,-127,-4,-98,-55,-57,6,-83,-100,-58,-84, 
  /* [50][0][][] */ 43,33,15,-62,35,6,22,62,127,-21,-47,17,15,-54,17,-30, 
  /* [51][0][][] */ 44,-32,31,8,3,-46,-33,-127,21,-75,-85,-24,-28,-69,-9,-56, 
  /* [52][0][][] */ 5,1,-65,66,21,0,-72,107,-127,61,-24,-74,46,115,7,-77, 
  /* [53][0][][] */ 1,98,41,-41,8,50,15,-59,-69,-8,7,35,50,-111,-127,36, 
  /* [54][0][][] */ -11,11,-3,29,42,-35,-14,-39,12,23,-13,-10,2,127,-31,-1, 
  /* [55][0][][] */ -61,90,127,-8,25,5,-11,-14,-31,24,71,-37,-4,-38,81,20, 
  /* [56][0][][] */ 48,-11,-2,-42,47,14,7,29,50,2,7,127,-24,-19,16,39, 
  /* [57][0][][] */ -7,-37,22,70,-87,-10,42,127,-27,45,-41,7,-10,75,55,4, 
  /* [58][0][][] */ 25,106,22,-111,22,52,-41,25,127,-37,-28,102,-16,-86,73,102, 
  /* [59][0][][] */ 6,52,53,-95,-69,0,44,-16,-23,34,43,-61,-7,-127,-62,-3, 
  /* [60][0][][] */ 86,-59,127,-51,-46,92,13,-42,-28,61,-73,-1,82,0,86,47, 
  /* [61][0][][] */ -127,70,-58,3,-21,94,57,105,-40,34,85,40,-11,80,-58,-64, 
  /* [62][0][][] */ 112,77,110,-57,-79,39,31,-44,-71,91,-96,-49,127,-74,23,-93, 
  /* [63][0][][] */ 7,26,17,-113,47,-29,-28,-115,-116,94,48,-26,127,3,16,-63, 
  /* [64][0][][] */ -48,-5,24,-4,63,-16,-12,-127,18,-96,-1,-40,-21,-5,0,-8, 
  /* [65][0][][] */ -108,61,29,-68,9,127,24,-65,-81,9,36,-7,35,6,-54,-46, 
  /* [66][0][][] */ 101,-23,112,9,-77,-1,-43,-18,-72,1,101,-68,32,31,-127,-53, 
  /* [67][0][][] */ -1,10,-60,89,58,-37,-103,-115,83,-127,-74,-11,-114,-8,-119,14, 
  /* [68][0][][] */ 90,-22,-111,33,-14,-17,64,-51,19,20,115,-20,-34,127,70,41, 
  /* [69][0][][] */ -38,51,-61,-11,-13,-102,-5,25,-19,25,62,127,55,-69,-72,11, 
  /* [70][0][][] */ 37,28,-43,-2,-15,-6,127,117,-5,66,-48,27,3,60,1,41, 
  /* [71][0][][] */ 35,-101,-53,-28,24,-36,-29,65,-11,-85,-18,-16,-18,-96,127,18, 
  /* [72][0][][] */ 18,-22,-21,56,75,-63,-1,-127,81,41,-39,32,53,69,88,29, 
  /* [73][0][][] */ -6,-87,8,-16,-78,13,49,2,6,0,-39,-24,19,-12,127,0, 
  /* [74][0][][] */ -42,38,31,108,-7,8,-127,109,12,-20,-11,-32,-29,-16,-17,10, 
  /* [75][0][][] */ -70,44,-82,20,-3,14,84,84,67,43,19,17,-116,127,90,-11, 
  /* [76][0][][] */ -77,-80,-53,-25,75,-127,-113,-67,-17,-66,44,-62,-11,19,45,-95, 
  /* [77][0][][] */ -46,79,-41,-38,-125,-34,-27,-22,127,6,-120,77,20,48,34,-70, 
  /* [78][0][][] */ -48,-117,-33,91,17,43,17,54,-15,-127,-61,56,-13,-55,90,68, 
  /* [79][0][][] */ 22,-25,-16,-40,127,-6,57,-17,98,10,5,12,-56,-6,-12,-62, 
  /* [80][0][][] */ -37,-7,25,-127,6,-25,-63,9,-41,-19,49,-19,11,71,2,23, 
  /* [81][0][][] */ 1,-63,94,21,-2,-31,32,-1,12,35,-127,14,114,45,-50,-10, 
  /* [82][0][][] */ -44,24,23,-102,-22,1,-14,-32,-8,-29,-60,-48,-21,-127,-58,44, 
  /* [83][0][][] */ 81,62,-127,-56,-61,49,-29,60,-124,-30,-42,-97,36,-48,10,71, 
  /* [84][0][][] */ 86,7,6,17,-25,-26,-42,20,-45,-43,93,6,-55,1,127,-88, 
  /* [85][0][][] */ 18,-58,27,12,64,-22,-53,127,-99,-61,-55,-3,-26,53,126,-85, 
  /* [86][0][][] */ -50,116,56,-1,-72,42,-16,44,-127,-3,93,51,-78,-40,-41,60, 
  /* [87][0][][] */ 105,-23,15,-15,-51,-29,-1,2,6,45,-127,7,62,-18,14,48, 
  /* [88][0][][] */ 67,20,-88,83,15,-18,-55,51,127,21,104,-14,-31,21,93,-74, 
  /* [89][0][][] */ 18,72,-97,-22,-43,-39,56,-83,9,85,14,-16,-1,4,-66,-127, 
  /* [90][0][][] */ -32,-78,-3,-50,-127,28,127,-9,25,-58,-34,-44,34,-29,-97,-7, 
  /* [91][0][][] */ 10,106,5,-37,-13,90,4,-57,-93,38,76,43,57,21,-78,127, 
  /* [92][0][][] */ 31,-23,4,-1,49,-39,-68,-127,52,-61,-7,-45,-52,-17,-5,-5, 
  /* [93][0][][] */ 77,-63,31,-121,-33,-15,-54,70,18,-127,59,-43,1,88,-21,64, 
  /* [94][0][][] */ -118,37,-88,-4,46,-127,17,1,15,-28,70,-7,-18,53,-14,-8, 
  /* [95][0][][] */ 8,120,-27,-127,-1,26,18,-7,40,-34,-46,-56,10,12,-47,-18, 
};
const TfArray<96, float> quant13_scale = { 96, { 0.00084111595060676336, 0.00082936719991266727, 0.00065358506981283426, 0.00029750211979262531, 0.00038599965046159923, 0.00067735504126176238, 0.0012511219829320908, 0.00075484602712094784, 0.00025225867284461856, 0.0010930175194516778, 0.00091830419842153788, 0.00067326030693948269, 0.00044061196967959404, 0.00041238209814764559, 0.00033135581179521978, 0.0013909777626395226, 0.00044014691957272589, 0.00052655459148809314, 0.00033961661392822862, 0.00070896116085350513, 0.00052283972036093473, 0.0013602400431409478, 0.00051055772928521037, 0.0014857748756185174, 0.0019821610767394304, 0.00060164247406646609, 0.00064737210050225258, 0.00051085843006148934, 0.00091995502589270473, 0.00033557869028300047, 0.00012883187446277589, 0.00049123441567644477, 0.00066411343868821859, 0.0013504453236237168, 0.00030052094371058047, 0.00077195960329845548, 0.00066602521110326052, 0.0009295435156673193, 0.00035783188650384545, 0.0017280151369050145, 0.00050902506336569786, 0.00046025571646168828, 0.00016527505067642778, 0.00075193704105913639, 0.0001936727057909593, 0.00089512451086193323, 0.00097258255118504167, 0.00039531366201117635, 0.00026628572959452868, 0.00075665884651243687, 0.00099045608658343554, 0.00054764410015195608, 0.0011752594728022814, 0.0005874214693903923, 0.0013140117516741157, 0.00064779468812048435, 0.0010112763848155737, 0.00031484701321460307, 0.0011182228336110711, 0.00035529883462004364, 0.00050664594164118171, 0.00027414393844082952, 0.00044049060670658946, 0.00052572484128177166, 0.00073064933530986309, 0.00056703330483287573, 0.00072148279286921024, 0.00052995438454672694, 0.0005227855290286243, 0.00045694664004258811, 0.00066010304726660252, 0.00040225568227469921, 0.00015599484322592616, 0.00067984469933435321, 0.0016008636448532343, 0.00075791298877447844, 0.00067155464785173535, 0.00071230210596695542, 0.00096065405523404479, 0.00073744793189689517, 0.00047722822637297213, 0.00033514847746118903, 0.00051020912360399961, 0.00033013732172548771, 0.0012221271172165871, 0.00073954509571194649, 0.00036800740053877234, 7.3304108809679747e-05, 0.00028518462204374373, 0.00056692329235374928, 0.00049302662955597043, 0.00099759234581142664, 0.00052121322369202971, 0.00067171431146562099, 0.00067386968294158578, 0.00046623687376268208, } };
const TfLiteAffineQuantization quant13 = { (TfLiteFloatArray*)&quant13_scale, (TfLiteIntArray*)&g0::quant6_zero, 0 };
const MODEL_SECTION(EI_MODEL_SECTION) ALIGN(16) int32_t tensor_data14[16] = { -5738, -2029, -19687, 27267, 27742, -2361, -26731, -589, 4302, 2708, 26958, 21750, -13230, 14165, 33614, -8197, };
const TfArray<16, float> quant14_scale = { 16, { 0.00044335320126265287, 0.00034889226662926376, 0.00023188379418570548, 0.00023892325407359749, 0.00026804651133716106, 0.00032941665267571807, 0.00025460764300078154, 0.00043473896221257746, 0.000208824742003344, 0.00022702408023178577, 0.00030659115873277187, 0.00076747807906940579, 0.00045163574395701289, 0.00035777009907178581, 0.00042595868580974638, 0.00032128806924447417, } };
const TfLiteAffineQuantization quant14 = { (TfLiteFloatArray*)&quant14_scale, (TfLiteIntArray*)&g0::quant8_zero, 0 };
const MODEL_SECTION(EI_MODEL_SECTION) ALIGN(16) int8_t tensor_data15[16*1*1*96] = { 
  /* [0][0][][] */ 0,7,-12,20,32,67,-23,-31,40,-1,25,-6,-13,4,43,62,22,0,-22,-13,92,-41,-5,-39,-16,-25,-25,-109,-1,-15,16,56,127,4,-5,5,21,-6,-18,10,-26,21,26,-28,30,-32,-4,32,-17,13,-3,-11,-39,-10,0,-5,33,27,-21,-28,-29,26,-2,-8,14,-2,53,7,22,12,-1,-21,-57,-2,-17,4,-4,-80,4,-18,36,-10,-73,-57,24,-23,8,39,-24,8,41,6,32,22,-6,121, 
  /* [1][0][][] */ 40,-105,38,83,34,-22,-22,-22,-1,-72,2,73,14,-61,-30,-54,-63,-16,11,-14,26,-77,-46,1,88,-18,-65,7,-13,127,-13,-4,35,9,-58,24,-15,1,63,-52,22,-66,65,-39,-42,25,50,2,24,26,6,-61,71,-43,36,-21,17,35,13,-56,40,-41,37,-21,-31,-70,34,43,19,77,-56,-8,-107,83,-13,57,11,67,13,-29,65,6,-44,-13,-87,53,22,25,-40,31,47,39,1,-27,42,-20, 
  /* [2][0][][] */ 39,14,-12,-37,18,-26,-1,29,73,-33,37,39,-24,-4,87,-21,21,-30,28,-29,-7,-34,0,-48,-11,-1,-33,-24,-1,24,99,-43,46,-77,-15,82,34,127,-98,-34,-28,-24,55,44,-31,-56,-45,11,21,46,-68,-18,19,20,-2,-35,-18,-2,-14,28,-28,-15,89,118,-6,-56,1,-59,39,-15,-12,51,-2,42,-35,5,25,52,-10,10,7,93,0,3,7,-3,1,-2,12,16,31,-47,-30,20,-9,79, 
  /* [3][0][][] */ -12,-2,-32,21,26,-33,-9,-7,-28,21,-19,-3,18,-10,28,0,88,-39,13,23,-47,-25,-2,2,-23,11,4,-28,33,-81,17,-8,33,-2,13,12,-8,11,-19,19,12,-47,15,3,-19,-5,7,11,-113,-17,-23,25,-127,-42,-17,-21,-1,21,-21,25,-10,19,6,13,32,-61,-44,21,59,-22,11,33,-22,-27,-2,-17,-27,-51,20,-37,4,-22,8,92,75,59,51,-4,26,-35,-15,-12,-11,-19,-19,-2, 
  /* [4][0][][] */ 3,-48,19,-79,7,-18,-70,21,-16,-79,-42,36,6,90,33,27,62,-12,-7,-10,2,51,31,-7,-17,22,-12,28,22,-26,5,-16,-28,-2,23,13,13,-6,32,-18,13,21,-71,-32,12,-6,-7,-23,6,71,7,-32,-34,-21,31,22,15,-48,19,26,3,8,-7,1,28,-127,35,-15,-65,7,-24,-15,-16,-3,-33,2,-6,79,50,7,32,11,116,-41,15,-17,-7,-28,95,30,7,37,-7,24,0,-26, 
  /* [5][0][][] */ -10,-6,-1,5,14,-12,-8,127,64,-11,-5,-31,-23,21,49,8,16,-13,-2,-38,5,3,-19,-37,19,25,16,22,71,19,30,60,-13,17,0,-3,-23,-34,-35,-10,-41,-23,29,0,31,22,12,11,6,17,-29,10,-30,9,2,1,-6,-24,-18,39,-61,15,10,-37,3,18,-21,24,19,32,10,57,28,29,-3,-1,-10,26,-5,113,5,-32,8,41,28,-36,22,-23,-16,2,27,-115,-21,-32,-4,-110, 
  /* [6][0][][] */ -34,-32,-21,-44,-7,49,-42,-7,9,13,38,41,36,-75,8,29,7,-67,25,51,32,7,-32,-58,81,-3,19,-55,23,26,27,4,27,22,-19,41,38,7,100,3,-71,5,-39,-12,11,16,37,-127,56,57,-21,1,1,-9,-25,-52,74,-30,14,19,18,18,60,-20,72,60,76,2,-14,4,7,-16,-7,4,85,-49,-49,36,15,-5,11,-13,55,-47,-5,6,58,2,47,-4,-6,48,-47,26,40,44, 
  /* [7][0][][] */ 20,31,32,-15,-18,-7,-10,-41,-16,8,-25,-29,-14,-83,4,2,-6,-31,-6,9,-33,-35,-17,17,-22,-23,18,9,-4,3,14,0,-28,8,-14,-23,-5,-16,-39,0,2,-33,-46,35,-23,16,-12,74,-6,29,-13,-19,-22,9,-4,-68,17,4,2,-10,15,-2,-17,-1,-15,52,13,-25,-14,-19,12,30,-8,-21,-7,-2,50,8,-5,-14,-6,-35,68,0,-15,127,-15,10,-41,-18,-28,-6,-25,-11,-16,-8, 
  /* [8][0][][] */ -87,44,25,-29,27,-29,8,88,28,74,-2,-12,38,24,74,-20,16,36,-49,-29,37,35,-47,20,-35,0,-52,-32,57,-127,-33,24,51,8,-1,-2,-59,45,-44,76,36,26,7,-103,-19,-26,11,22,-43,37,-7,48,-116,46,25,11,-16,-7,-56,-19,-32,-2,40,59,-17,57,45,-34,6,-19,12,82,5,31,17,-38,40,-79,9,-50,-39,-9,4,32,-88,13,31,-103,20,26,-11,-2,25,-13,-18,45, 
  /* [9][0][][] */ -15,-67,59,-31,25,11,21,48,10,-20,14,24,-50,-58,-8,-12,39,8,38,-80,-23,34,-69,19,38,21,-38,-42,-31,-61,-39,12,8,5,-14,48,14,63,-127,19,64,32,-20,-73,-10,-32,67,-110,-29,27,-20,-10,-1,-1,-12,13,-53,62,-47,28,47,11,9,20,12,115,30,67,6,10,-11,-12,-24,33,-49,5,38,12,-28,9,-44,22,38,-60,6,74,27,-74,-61,11,-40,13,29,-10,16,-27, 
  /* [10][0][][] */ 44,48,-24,40,49,-127,-13,-35,19,12,29,32,-36,42,43,-63,-20,42,-42,24,-47,-7,-26,-23,-93,-10,-70,118,16,43,22,13,5,-41,3,-1,69,-19,-1,-16,-38,60,5,-1,-78,8,-37,4,-10,-13,-36,-3,-4,0,18,-21,0,2,-6,12,-13,0,6,38,8,52,69,41,20,-28,-5,48,-61,5,-59,-52,10,24,-35,2,3,-6,-52,-39,55,-55,114,-45,-16,10,9,5,86,25,-12,-120, 
  /* [11][0][][] */ 49,57,-55,10,13,30,42,-15,10,-14,-2,12,-26,4,43,0,20,-13,-106,7,23,16,5,-11,-49,-7,-15,31,0,-3,13,5,1,8,-1,30,23,-6,-27,21,-19,30,51,-84,30,-44,4,-19,-127,20,-19,-51,19,28,-1,17,-35,-26,2,4,7,-25,3,10,-64,62,-20,10,-3,-15,39,16,-32,-13,19,24,-25,-48,-51,6,-17,1,74,64,7,-29,-21,-27,-16,44,-28,1,18,11,-14,12, 
  /* [12][0][][] */ -47,-7,30,-8,16,16,19,29,127,3,3,-6,-17,15,-64,-73,35,14,15,-14,46,51,-16,-25,14,21,11,-82,-55,13,6,-49,30,1,2,-11,4,8,7,-17,-15,-7,21,11,16,15,14,6,7,37,2,17,13,-1,-1,5,83,-6,10,11,-8,-1,35,-9,-9,31,-55,24,26,-1,-3,-30,22,46,-92,-14,16,-1,17,-74,10,-8,19,24,-4,0,-17,-17,-3,42,3,25,-27,-31,14,8, 
  /* [13][0][][] */ 28,-12,-6,42,31,-9,-3,7,-7,-3,1,35,31,-16,0,-7,53,-80,-70,0,-10,-7,11,-20,-20,18,-23,38,-24,-47,-5,24,13,21,13,43,28,-13,6,18,9,-4,24,58,10,23,22,-127,42,-22,38,-12,-27,5,41,10,-18,9,47,8,26,23,22,1,11,-23,-16,-63,-1,9,-15,-41,-24,-13,-28,13,-44,19,13,-3,28,-9,-19,11,3,76,44,-7,16,26,8,-1,42,19,11,-18, 
  /* [14][0][][] */ -117,-38,15,41,15,-19,-8,-39,-35,9,-15,-29,101,22,-127,52,29,-3,5,66,-92,-40,52,49,-119,-21,43,-24,-39,-103,-49,13,-51,27,63,-49,18,18,41,35,-20,36,-33,-33,46,126,53,80,-71,62,-19,17,-85,-31,37,-5,19,29,39,13,41,8,-19,32,10,-27,-45,25,5,40,-31,-107,-58,-49,36,53,16,39,94,17,31,18,23,18,17,41,43,20,65,16,33,14,-31,35,13,-2, 
  /* [15][0][][] */ 78,-34,36,21,-5,98,30,-4,-19,45,-6,18,-93,-13,-38,12,-8,36,59,22,30,25,-81,74,7,-17,30,15,32,33,-33,-46,28,-12,7,-15,-10,-61,-16,-127,-2,15,-11,46,37,44,-6,-48,80,-56,-71,38,55,-105,50,-114,-15,-51,16,19,-117,-8,20,27,24,-50,-49,83,-33,79,-58,35,14,22,7,5,20,-56,32,-24,-11,-4,50,64,-40,-40,13,-48,-30,-14,68,-7,-70,46,19,-41, 
};
const TfArray<16, float> quant15_scale = { 16, { 0.018842510879039764, 0.01482792105525732, 0.009855060838162899, 0.010154237970709801, 0.011391975916922092, 0.014000207185745239, 0.010820824652910233, 0.018476406112313271, 0.0088750515133142471, 0.0096485232934355736, 0.013030123896896839, 0.032617818564176559, 0.019194519147276878, 0.015205228701233864, 0.018103243783116341, 0.013654742389917374, } };
const TfLiteAffineQuantization quant15 = { (TfLiteFloatArray*)&quant15_scale, (TfLiteIntArray*)&g0::quant8_zero, 0 };
const MODEL_SECTION(EI_MODEL_SECTION) ALIGN(16) int32_t tensor_data16[96] = { 9936, -9480, 2379, 55023, -1306, -4278, -11766, 3311, -2970, 874, 3399, 953, 2557, -7016, 4657, -4483, -545, 15859, 27907, 1801, -1268, -5459, -221, 364, 15975, 924, -435, -5428, -7461, -6656, 8291, -10376, 764, -3521, -2014, 11472, 1264, -6107, 23448, -329, -108, 2389, -11902, -8029, -5449, 66970, -3278, 16496, 35240, -14664, -507, 9925, 6800, -1839, -7858, 2514, -13767, 1525, 2282, -8516, -4195, -268, -12930, -2490, 1761, 14551, 29703, 37265, -14522, -383, -11087, -1932, 56983, 12681, -1883, -345, 19511, 41333, 286, -11273, -1755, -10066, -1091, -3759, 1478, 468, 3220, -66, 3810, -5498, 286, -785, 843, 1341, 449, 48739, };
const TfArray<96, float> quant16_scale = { 96, { 0.00023413843882735819, 0.00012176771269878373, 0.00027700397185981274, 3.704120172187686e-05, 0.00018554777489043772, 0.0001935344043886289, 0.00034675272763706744, 8.1689911894500256e-05, 0.0001868438848759979, 0.00046991850831545889, 0.00016335902910213917, 0.00039001667755655944, 0.00011554975208127871, 0.00041770146344788373, 0.00025424352497793734, 0.00017370976274833083, 0.00010058025509351864, 0.00026890714070759714, 5.6557073548901826e-05, 0.00026819171034730971, 6.2854232965037227e-05, 0.00015925339539535344, 0.00013129165745340288, 0.00039970013312995434, 0.00024354999186471105, 0.00024819161626510322, 0.00014026393182575703, 0.00018128986994270235, 7.2955408541020006e-05, 0.00010585600830381736, 0.00011300396727165207, 0.00015247937699314207, 0.00012836368114221841, 0.00011605008330661803, 0.0002113055088557303, 0.00019935397722292691, 0.00046610369463451207, 0.00011476568761281669, 4.6567944082198665e-05, 0.00017725232464727014, 0.0002746551763266325, 0.00036793347680941224, 0.00034515370498411357, 0.00012934987898916006, 0.00019942839571740478, 4.6757468226132914e-05, 0.00020668641082011163, 0.00020642222079914063, 7.3585026257205755e-05, 0.00015403337602037936, 0.00020250411762390286, 0.00012594842701219022, 0.00021721534722018987, 0.000243967748247087, 0.00033470365451648831, 0.00040979828918352723, 0.00024898510309867561, 0.00030261234496720135, 0.00010223105346085504, 7.7315002272371203e-05, 0.0003097386215813458, 0.00012891074584331363, 0.00026110999169759452, 0.00014035768981557339, 0.00019798480207100511, 0.0001809584500733763, 7.1416179707739502e-05, 5.0147194997407496e-05, 0.00039324350655078888, 0.00027546338969841599, 0.00017560286505613476, 9.5131632406264544e-05, 0.00010558204667177051, 0.00012950986274518073, 0.00014675516285933554, 0.00026980321854352951, 0.00045092758955433965, 4.7464603994740173e-05, 0.0002349972928641364, 0.00017129511979874223, 0.00018442963482812047, 0.00022874269052408636, 0.00017165798635687679, 0.00011053184425691143, 0.00013862310152035207, 0.00010313474194845185, 0.00013248920731712133, 0.00021095568081364036, 0.00024396908702328801, 0.00010728646884672344, 0.00020108549506403506, 0.00011655969137791544, 0.000139512078021653, 0.00047657289542257786, 0.0026129991747438908, 7.864801591495052e-05, } };
const TfLiteAffineQuantization quant16 = { (TfLiteFloatArray*)&quant16_scale, (TfLiteIntArray*)&g0::quant6_zero, 0 };
const MODEL_SECTION(EI_MODEL_SECTION) ALIGN(16) int8_t tensor_data17[1*3*3*96] = { 
  /* [0][0][][] */ -18,10,-18,105,-17,23,-59,-57,16,-6,93,-9,0,-9,-9,48,7,15,-32,7,71,3,32,-42,1,18,39,54,25,26,23,49,-5,32,10,-16,7,49,-79,-27,23,8,28,17,-87,-60,29,-6,-9,-15,-3,-6,51,9,-5,0,-11,-32,23,-31,32,-2,127,26,-11,-7,17,-54,67,39,4,4,69,-38,78,8,15,-127,32,64,5,17,127,-11,37,27,-33,-24,32,-5,-16,80,0,19,0,10, -49,16,-5,9,51,-6,-10,-127,36,14,-127,-6,-17,-12,-2,80,16,-29,-18,-12,77,-96,127,23,-60,-31,-108,-4,28,38,-50,18,121,16,-13,-2,-23,127,-90,-127,11,-18,-25,11,41,-124,127,-44,-73,51,52,4,38,-60,35,53,27,42,-104,90,127,34,8,-18,45,-33,-100,-2,38,-28,-19,59,-61,-52,111,-2,-31,-66,-38,62,-63,65,-14,12,-13,47,54,-45,-30,51,-15,68,-127,-33,24,-127, -3,0,-21,-73,9,16,38,14,-5,0,2,54,4,-10,-18,7,-18,18,-18,22,13,28,27,-30,-2,-31,8,22,-7,25,43,-76,41,21,17,-22,12,5,-68,-20,11,5,-12,7,23,-31,26,0,8,-2,11,-3,9,10,-2,7,-12,47,2,-1,15,-19,-1,-17,-25,-13,28,-51,-101,-5,40,-8,-127,-33,3,17,9,-15,9,11,-16,25,-37,2,-46,20,32,30,-23,-14,26,-10,12,6,-1,-42, 
  /* [0][1][][] */ -41,58,-16,38,-85,-14,-8,-43,22,95,-47,-24,-35,-26,-11,67,127,-26,-96,-9,62,-127,-30,12,-34,-50,-127,2,41,38,-51,30,-126,-72,-50,2,67,1,-38,45,-16,84,2,1,33,-61,-9,-32,127,47,-3,19,42,12,-33,-16,29,9,-127,127,-30,-87,26,127,-61,-33,-79,120,-29,127,-18,58,-41,-50,41,9,-40,-80,127,47,127,35,11,3,127,28,-113,47,-40,-30,-102,38,93,94,31,-60, 127,127,127,127,-46,-127,127,24,127,-127,20,-127,-108,127,127,127,-18,-127,-71,-127,127,27,-65,127,127,127,-57,-127,127,127,-127,127,-8,-127,-113,127,-127,-43,119,105,-127,-127,127,127,127,-127,-103,127,-13,127,-127,-127,-127,127,127,-127,127,-127,-40,47,-102,-27,-62,-64,127,127,-73,127,127,-105,-127,127,-53,127,-127,-127,-127,121,-80,127,-41,127,85,127,-39,-127,-32,-106,-127,-119,-23,-127,-21,-127,-127,115, -25,57,-36,5,127,71,-20,43,6,27,-15,-9,-27,-27,-17,2,-108,-22,-127,44,39,82,-10,-110,-34,-45,123,76,11,42,71,11,118,-42,127,-3,56,7,-96,15,39,27,-20,6,-32,-57,-8,-42,80,17,-10,37,-4,-1,-71,-12,25,22,125,-90,7,127,-2,-35,-112,-26,-79,96,14,-14,112,32,-29,-49,24,49,-32,-16,-40,0,-47,7,51,27,-91,34,127,-46,26,-17,127,-10,-113,32,34,16, 
  /* [0][2][][] */ -8,-31,-20,-62,-6,10,42,35,2,10,-20,49,29,-36,-11,8,47,4,3,28,2,34,-20,-25,-2,-28,12,13,-3,15,48,-73,-47,75,-28,-26,32,-34,-81,20,11,7,-29,17,14,-81,-8,-1,-6,12,17,-4,15,3,-19,7,2,44,-48,33,0,-21,-1,22,-7,-9,23,-53,-46,11,-18,-3,-120,-46,11,21,14,-20,58,19,23,18,-40,22,11,26,-26,12,4,30,22,-3,20,40,-4,-27, -28,-4,-24,26,-46,74,-23,66,9,-7,54,-14,127,-7,-22,-17,1,-38,-60,26,-14,86,-49,-107,-48,-50,103,73,19,45,50,-1,-127,64,-9,-21,-27,-25,-127,1,46,-13,-11,33,-29,-40,-15,-46,-59,41,68,21,-11,-76,33,52,24,28,79,-51,26,-62,-16,6,19,-26,-127,-54,-6,-26,-63,37,30,-48,-22,-4,-46,13,-63,2,45,33,20,12,5,58,-100,127,8,127,-32,-18,109,-22,45,80, -12,-28,-23,34,13,58,-42,9,12,-6,1,9,19,-49,-13,-9,-51,-4,16,25,-12,13,-20,14,-9,16,0,48,0,16,32,27,16,49,21,-19,-5,-25,-42,10,11,-10,23,9,-84,-27,-10,5,1,-7,1,-3,-3,10,-14,-4,3,-46,21,-26,-18,45,1,-24,-10,-2,38,-56,45,8,52,-13,25,-59,-6,25,10,1,-4,21,-31,31,89,-9,-23,48,42,-7,100,20,4,-19,7,-21,-6,-46, 
};
const TfArray<96, float> quant17_scale = { 96, { 0.009950883686542511, 0.0051751276478171349, 0.011772668920457363, 0.001574251102283597, 0.0078857801854610443, 0.0082252118736505508, 0.014736990444362164, 0.0034718213137239218, 0.007940865121781826, 0.019971536472439766, 0.0069427588023245335, 0.016575708985328674, 0.0049108644016087055, 0.017752312123775482, 0.010805349797010422, 0.007382664829492569, 0.0042746607214212418, 0.011428552679717541, 0.0024036755785346031, 0.011398147791624069, 0.0026713048573583364, 0.0067682694643735886, 0.0055798953399062157, 0.016987254843115807, 0.010350874625146389, 0.010548143647611141, 0.0059612169861793518, 0.0077048190869390965, 0.0031006047502160072, 0.0044988803565502167, 0.0048026684671640396, 0.0064803734421730042, 0.0054554562084376812, 0.0049321283586323261, 0.0089804837480187416, 0.0084725441411137581, 0.019809406250715256, 0.0048775416798889637, 0.0019791375380009413, 0.0075332233682274818, 0.011672845110297203, 0.015637172386050224, 0.014669032767415047, 0.0054973694495856762, 0.0084757069125771523, 0.0019871923141181469, 0.0087841721251606941, 0.0087729441002011299, 0.0031273635104298592, 0.0065464181825518608, 0.008606424555182457, 0.0053528081625699997, 0.00923165213316679, 0.010368629358708858, 0.014224905520677567, 0.017416426911950111, 0.010581866838037968, 0.012861024588346481, 0.0043448195792734623, 0.0032858874183148146, 0.013163890689611435, 0.0054787066765129566, 0.011097174137830734, 0.0059652016498148441, 0.0084143541753292084, 0.007690733764320612, 0.0030351877212524414, 0.0021312558092176914, 0.016712848097085953, 0.011707193218171597, 0.0074631213210523129, 0.0040430943481624126, 0.004487236961722374, 0.0055041690357029438, 0.0062370942905545235, 0.011466636322438717, 0.019164422526955605, 0.0020172456279397011, 0.0099873850122094154, 0.0072800423949956894, 0.0078382594510912895, 0.0097215641289949417, 0.0072954641655087471, 0.0046976031735539436, 0.0058914818800985813, 0.00438322639092803, 0.005630791187286377, 0.0089656161144375801, 0.01036868616938591, 0.0045596747659146786, 0.0085461335256695747, 0.0049537867307662964, 0.0059292633086442947, 0.02025434747338295, 0.11105246096849442, 0.0033425407018512487, } };
const TfLiteAffineQuantization quant17 = { (TfLiteFloatArray*)&quant17_scale, (TfLiteIntArray*)&g0::quant6_zero, 3 };
const MODEL_SECTION(EI_MODEL_SECTION) ALIGN(16) int32_t tensor_data18[96] = { 19594, 1111, 3944, -730, 5202, 5086, 9186, 8236, -1412, 19210, 3518, 3390, 10330, 45444, -722, -1767, 11889, 8108, 1348, -156, -373, 14475, 4579, 6067, 7756, 5935, 4915, 6624, -50, -515, 11867, 8159, 9990, 3235, 4285, -716, 19933, 17479, 1168, 6598, 1088, 11585, 11960, 4303, 6219, 8734, 16022, 13487, 4329, 3820, 202, -522, 12322, 6645, 9092, 15896, -247, 11220, 2496, 4292, 11922, 9493, 3877, 13200, 4862, 3217, 8416, -650, 22513, 10404, 5746, -1379, -803, 6151, 1054, 3059, 30022, 15027, 12025, -3987, 3922, -9283, -1702, 443, 6391, 4497, 7284, 5942, 9600, 2967, 8750, 2921, 13873, 21072, -9779, 13382, };
const TfArray<96, float> quant18_scale = { 96, { 0.00013565723202191293, 0.0002440915850456804, 0.00032596188248135149, 0.00072261178866028786, 0.00031345625757239759, 0.00018591308617033064, 0.00033598614390939474, 0.00041938960202969611, 0.00027721322840079665, 9.3669557827524841e-05, 0.00037930064718239009, 0.00028325687162578106, 0.00026220155996270478, 0.0001048820122377947, 0.00026526875444687903, 0.00042025549919344485, 0.00018574425484985113, 0.00028310529887676239, 0.00035104717244394124, 0.0007174932979978621, 0.00054127839393913746, 0.00016827798390295357, 0.00033837370574474335, 0.00012435318785719573, 0.00022855668794363737, 0.00035552735789678991, 0.00028322020079940557, 0.00011709557293215767, 0.00054181617451831698, 0.00029256302514113486, 0.00012069576041540131, 0.0002320612984476611, 0.00018756900681182742, 0.00030155896092765033, 0.00036401997203938663, 0.0004383850609883666, 0.00011896473006345332, 0.00015426681784447283, 0.0005179858417250216, 0.00015106510545592755, 0.00030834064818918705, 0.00016954299644567072, 0.00017984420992434025, 0.00018293420725967735, 0.0001969250151887536, 0.00036685907980427146, 0.00017727265367284417, 0.00011736190936062485, 0.00036175630521029234, 0.0002312212745891884, 0.00047534701297990978, 0.0013063551159575582, 0.00021889340132474899, 0.00024059251882135868, 0.00025366171030327678, 0.00011238826118642464, 0.00054190825903788209, 0.00015753590560052544, 0.00032097921939566731, 0.00038651350769214332, 0.00014179968275129795, 0.00015494278341066092, 0.00024674314772710204, 0.00021176112932153046, 0.00020108504395466298, 0.00035178527468815446, 0.00023261328169610351, 0.00054335413733497262, 0.00011825460387626663, 0.00011957604874623939, 0.00034585210960358381, 0.00044563622213900089, 0.00041631548083387315, 0.00021887038019485772, 0.00029333835118450224, 0.00042208412196487188, 7.8720411693211645e-05, 0.00030121667077764869, 0.00013801510795019567, 0.00029647507471963763, 0.00026485082344152033, 0.00021990285313222557, 0.0001951389858732, 0.00070906413020566106, 0.0002550098579376936, 0.00033484530285932124, 0.00022273312788456678, 0.00022766659094486386, 0.00017012938042171299, 0.00049043569015339017, 0.00016290775965899229, 0.00059049139963462949, 0.00014875126362312585, 0.00013290203060023487, 0.00029592216014862061, 0.00024634000146761537, } };
const TfLiteAffineQuantization quant18 = { (TfLiteFloatArray*)&quant18_scale, (TfLiteIntArray*)&g0::quant6_zero, 0 };
const MODEL_SECTION(EI_MODEL_SECTION) ALIGN(16) int8_t tensor_data19[96*1*1*16] = { 
  /* [0][0][][] */ 23,-55,45,77,37,-20,51,-50,127,34,-65,-74,28,39,-2,-71, 
  /* [1][0][][] */ 93,91,-2,-33,50,28,23,48,29,37,-86,127,14,-80,41,26, 
  /* [2][0][][] */ 70,-48,-31,43,-45,39,-53,19,-55,-60,-15,79,-56,-127,26,-83, 
  /* [3][0][][] */ 121,127,-8,42,-121,-17,-112,-35,0,-18,85,-58,-12,95,-54,-52, 
  /* [4][0][][] */ 15,-3,36,-9,-19,58,-17,21,-37,4,29,12,0,-127,40,-7, 
  /* [5][0][][] */ 85,-54,12,-19,-27,-85,17,9,-17,5,-127,14,9,-46,-29,28, 
  /* [6][0][][] */ -98,-33,-59,127,13,-49,-14,-2,-86,-85,-42,-18,14,17,28,25, 
  /* [7][0][][] */ -30,33,-127,71,49,-97,-7,47,30,-31,34,22,13,68,-12,-5, 
  /* [8][0][][] */ 42,-83,27,1,-25,34,-59,-57,-3,5,-127,24,-123,22,9,30, 
  /* [9][0][][] */ 29,-87,127,62,-36,-8,55,-47,110,-81,-19,-30,-32,64,-63,14, 
  /* [10][0][][] */ -55,-98,-20,1,64,51,92,76,127,-47,-76,-1,23,-38,-53,43, 
  /* [11][0][][] */ 60,-21,-127,-9,71,-31,2,8,-2,8,2,-1,-7,71,4,4, 
  /* [12][0][][] */ 38,-24,-115,92,11,-76,-7,-53,127,99,-72,6,-114,-53,90,-9, 
  /* [13][0][][] */ 61,-61,-30,-18,45,48,-113,-127,19,-85,-3,22,-39,-7,-32,-19, 
  /* [14][0][][] */ -43,26,-106,-26,65,-127,77,-42,57,-5,-20,-92,41,86,-20,32, 
  /* [15][0][][] */ 17,21,127,53,46,-29,-36,-19,-3,-40,-48,17,-126,-82,-23,44, 
  /* [16][0][][] */ -113,115,-53,48,-57,14,59,9,-52,74,83,6,36,-86,8,-127, 
  /* [17][0][][] */ -1,-6,-58,-45,-21,22,32,66,-14,127,-30,-16,-23,79,51,3, 
  /* [18][0][][] */ 5,127,-60,-15,19,-8,57,-44,20,34,-10,86,-4,-51,54,-74, 
  /* [19][0][][] */ 33,-24,26,9,-1,16,-1,5,17,-21,-49,21,-127,5,-21,38, 
  /* [20][0][][] */ 66,-45,-10,-45,-42,-7,1,-71,-56,40,-127,-50,42,10,32,29, 
  /* [21][0][][] */ 10,-13,127,47,-8,77,30,8,3,9,21,0,42,76,13,-18, 
  /* [22][0][][] */ 49,-13,23,30,-3,47,-16,127,-66,-42,7,-16,19,25,-48,52, 
  /* [23][0][][] */ -56,68,-125,11,31,-127,-10,63,-26,-49,19,-58,-44,-15,-12,14, 
  /* [24][0][][] */ 36,-43,-4,-43,-8,-44,-9,10,22,23,41,97,-52,40,127,36, 
  /* [25][0][][] */ -63,-127,-46,2,-21,-85,69,-50,-56,10,-126,57,-37,40,99,67, 
  /* [26][0][][] */ 47,-78,-31,67,-46,9,-106,127,-65,-92,-6,-8,-33,-93,11,-11, 
  /* [27][0][][] */ -116,127,-85,30,13,-66,-22,53,-32,-62,105,55,-67,-19,0,-14, 
  /* [28][0][][] */ -29,15,12,28,1,-18,34,81,41,21,-15,2,-127,-3,7,34, 
  /* [29][0][][] */ 0,69,29,-31,51,7,17,-14,-127,-23,-35,22,-15,11,-113,24, 
  /* [30][0][][] */ -37,20,-127,-80,39,-23,11,36,-59,-6,4,-42,-72,-54,-40,15, 
  /* [31][0][][] */ 121,-27,-127,-2,59,-10,-12,38,-12,11,-79,-30,29,0,-93,21, 
  /* [32][0][][] */ -86,34,-46,34,1,18,28,43,18,-4,127,61,-20,26,-36,-6, 
  /* [33][0][][] */ 72,-78,122,-6,-106,-43,-63,-18,-36,-58,-18,74,-85,127,81,64, 
  /* [34][0][][] */ -8,1,-51,-127,8,2,61,-49,63,36,-16,-60,23,21,30,28, 
  /* [35][0][][] */ -13,-40,104,64,45,1,43,-31,-80,14,-21,30,-36,127,-38,-16, 
  /* [36][0][][] */ -95,50,-18,-11,-8,60,2,56,23,-6,127,19,-39,51,39,-31, 
  /* [37][0][][] */ -41,8,127,-45,-103,-96,27,-52,2,46,2,16,-46,-91,68,51, 
  /* [38][0][][] */ -56,-3,19,-2,7,-44,-14,14,-27,-22,122,-36,127,22,1,-31, 
  /* [39][0][][] */ -68,2,17,-127,23,-77,0,84,-9,-50,48,-17,20,52,58,46, 
  /* [40][0][][] */ 80,-35,31,4,22,113,-18,-34,30,23,6,0,127,33,-46,-11, 
  /* [41][0][][] */ -1,-36,-59,-127,34,-4,-29,-106,17,-58,-8,-16,-18,5,-23,17, 
  /* [42][0][][] */ 14,41,-60,85,-103,-68,-78,30,-71,-52,127,-70,-33,83,-20,-13, 
  /* [43][0][][] */ 30,127,-50,97,42,19,72,-108,-32,117,16,-22,-4,-66,73,29, 
  /* [44][0][][] */ -30,4,-127,24,56,61,-45,49,-5,-35,88,-10,-12,-24,-25,-27, 
  /* [45][0][][] */ -28,17,0,-127,6,52,46,-16,17,43,-19,0,-2,-40,21,-21, 
  /* [46][0][][] */ 51,29,36,3,13,6,-15,67,21,-27,-64,-34,19,127,79,-35, 
  /* [47][0][][] */ -10,5,-6,-87,-31,15,-67,57,-34,-23,41,6,-1,-127,40,36, 
  /* [48][0][][] */ 0,-7,-4,-127,-2,-18,-5,8,6,-6,41,-19,16,53,-13,58, 
  /* [49][0][][] */ -12,-33,71,127,89,18,-2,52,-73,34,17,63,-16,41,101,-22, 
  /* [50][0][][] */ -51,21,-22,4,-8,74,-8,-65,42,-5,127,26,105,-20,-14,-75, 
  /* [51][0][][] */ 12,30,21,1,15,7,-12,9,27,1,1,127,5,23,3,-24, 
  /* [52][0][][] */ -3,72,94,7,4,-33,18,-44,-35,7,-19,53,17,55,-127,13, 
  /* [53][0][][] */ -26,-16,-30,-127,-12,5,-6,-48,-41,15,23,14,-30,-24,94,27, 
  /* [54][0][][] */ 33,-33,-41,-29,11,-44,-17,9,47,-13,-20,-46,52,127,35,17, 
  /* [55][0][][] */ 18,-89,-49,-4,54,-54,-103,-127,13,-54,-41,-23,-24,-73,-39,-49, 
  /* [56][0][][] */ 51,2,21,63,0,2,10,127,13,-38,-11,-43,30,-13,-73,40, 
  /* [57][0][][] */ 72,-24,127,24,-19,-25,-2,-39,27,40,-76,-1,40,-2,33,-33, 
  /* [58][0][][] */ 125,9,51,100,-127,-21,-58,90,-66,-28,31,-13,-66,-53,8,-71, 
  /* [59][0][][] */ 122,-11,20,6,-15,-31,-22,30,-22,8,-127,-8,-5,-19,27,41, 
  /* [60][0][][] */ -127,2,-41,13,8,-67,28,10,9,28,36,-26,-8,2,21,-61, 
  /* [61][0][][] */ -102,18,48,23,31,47,-9,-114,127,-75,68,-8,95,-29,-83,-54, 
  /* [62][0][][] */ -79,-38,-91,125,67,119,-47,127,13,-63,68,65,-95,38,-61,3, 
  /* [63][0][][] */ -25,14,127,-57,-72,-80,42,-42,21,47,-10,27,-24,-45,93,31, 
  /* [64][0][][] */ 25,59,-25,-9,36,-56,92,-127,-30,93,-2,24,-32,-111,-46,19, 
  /* [65][0][][] */ 13,15,-17,-8,88,-2,8,-127,-53,-76,-31,-36,-37,-94,112,7, 
  /* [66][0][][] */ -111,-4,1,19,-50,35,7,-36,-107,-45,-127,79,78,25,75,104, 
  /* [67][0][][] */ -106,-48,-32,127,-25,-30,-36,110,83,51,9,1,-44,23,-75,-96, 
  /* [68][0][][] */ -44,18,-78,127,-92,-118,7,-21,-72,-44,20,48,-37,-76,-33,0, 
  /* [69][0][][] */ 104,67,21,107,18,-3,64,-76,28,127,-35,44,-25,-18,60,-63, 
  /* [70][0][][] */ 2,12,59,-62,48,32,-2,31,65,62,15,24,-1,82,11,127, 
  /* [71][0][][] */ 2,62,14,83,46,-127,-54,85,36,-81,35,12,17,-57,-48,24, 
  /* [72][0][][] */ -127,-30,0,43,35,44,-26,-3,-19,-3,-59,64,33,8,37,62, 
  /* [73][0][][] */ 84,-16,-16,105,31,-55,53,-12,123,-62,-90,127,-127,83,104,-23, 
  /* [74][0][][] */ 56,-11,-27,-2,-21,-10,39,9,-10,-30,-124,91,-127,14,13,37, 
  /* [75][0][][] */ -11,-10,5,127,-45,-16,-7,-33,-67,42,-32,-38,4,-50,-17,-42, 
  /* [76][0][][] */ 6,-22,-45,25,28,5,-25,-127,32,-96,15,15,-4,-10,49,-66, 
  /* [77][0][][] */ 127,-13,57,45,-26,-29,-9,8,50,-19,-28,31,-3,13,10,17, 
  /* [78][0][][] */ -70,-33,127,-22,24,-57,-52,36,21,4,-49,-50,1,119,115,-41, 
  /* [79][0][][] */ -1,20,58,33,55,84,-44,-61,25,-47,75,-11,127,-21,-44,-48, 
  /* [80][0][][] */ -127,-86,-29,67,-23,98,10,5,-77,-10,-79,0,24,-65,-56,65, 
  /* [81][0][][] */ 71,13,-43,35,127,57,-30,-61,20,-80,-23,-95,-37,-13,-116,6, 
  /* [82][0][][] */ 127,105,10,65,-104,36,-90,2,-59,-23,100,-17,-69,123,10,-15, 
  /* [83][0][][] */ 127,54,27,-38,-15,-41,-7,43,15,12,59,-34,-45,-45,-11,-64, 
  /* [84][0][][] */ -7,-45,-83,-7,18,-15,35,-127,-29,14,-6,-19,29,-50,-14,-66, 
  /* [85][0][][] */ -16,-25,-75,-36,-39,-51,58,127,-4,64,5,-42,34,84,91,-35, 
  /* [86][0][][] */ 123,-45,-8,-23,-6,-71,24,-26,-18,-12,-127,-35,20,38,16,65, 
  /* [87][0][][] */ 65,-24,-11,28,-70,68,-66,127,-53,-46,-10,31,-8,-104,-4,-7, 
  /* [88][0][][] */ 30,-96,-114,-53,121,-75,43,-31,45,-27,-80,53,17,-2,127,-6, 
  /* [89][0][][] */ 12,-4,77,-114,41,56,-40,84,127,-16,48,7,63,59,-6,32, 
  /* [90][0][][] */ -9,-26,9,24,65,-51,97,-78,90,127,-54,59,-17,49,44,9, 
  /* [91][0][][] */ 14,-16,-54,3,14,-127,19,-10,6,-6,-58,10,38,3,34,9, 
  /* [92][0][][] */ 14,-20,127,22,37,20,-45,30,-5,9,-35,-13,22,101,22,-15, 
  /* [93][0][][] */ 127,-66,-32,-12,-2,-45,-28,52,-4,13,-94,37,-92,39,37,47, 
  /* [94][0][][] */ 40,-13,71,101,77,-80,-13,64,12,-2,-36,68,65,127,-38,-73, 
  /* [95][0][][] */ -127,26,41,37,14,74,2,12,4,-7,120,-15,-24,43,-58,-35, 
};
const TfArray<96, float> quant19_scale = { 96, { 0.0004455388116184622, 0.00080166960833594203, 0.0010705561144277453, 0.0023732727859169245, 0.0010294838575646281, 0.00061059405561536551, 0.001103478716686368, 0.0013774005929008126, 0.00091045099543407559, 0.00030763878021389246, 0.0012457364937290549, 0.00093030009884387255, 0.00086114811711013317, 0.00034446382778696716, 0.00087122176773846149, 0.0013802445027977228, 0.00061003956943750381, 0.00092980230692774057, 0.0011529437033459544, 0.0023564621806144714, 0.0017777198227122426, 0.0005526751047000289, 0.0011113202199339867, 0.00040841297595761716, 0.00075064838165417314, 0.001167657901532948, 0.00093017960898578167, 0.00038457679329439998, 0.001779485959559679, 0.00096086430130526423, 0.00039640089380554855, 0.00076215853914618492, 0.00061603257199749351, 0.00099040963687002659, 0.0011955501977354288, 0.0014397873310372233, 0.00039071566425263882, 0.00050665828166529536, 0.0017012200551107526, 0.00049614289309829473, 0.0010126826819032431, 0.00055682979291304946, 0.00059066206449642777, 0.0006008105119690299, 0.00064676051260903478, 0.0012048747157678008, 0.00058221630752086639, 0.00038545153802260756, 0.0011881156824529171, 0.00075939967064186931, 0.0015611813869327307, 0.004290460143238306, 0.00071891123661771417, 0.00079017761163413525, 0.0008331007556989789, 0.00036911657662130892, 0.0017797885229811072, 0.00051739491755142808, 0.0010541914962232113, 0.0012694257311522961, 0.0004657124518416822, 0.00050887832185253501, 0.0008103781146928668, 0.00069548672763630748, 0.00066042330581694841, 0.0011553678195923567, 0.00076397141674533486, 0.0017845371039584279, 0.000388383399695158, 0.00039272342110052705, 0.0011358815245330334, 0.0014636022970080376, 0.0013673042412847281, 0.00071883562486618757, 0.00096341071184724569, 0.0013862502528354526, 0.00025854131672531366, 0.00098928541410714388, 0.00045328281703405082, 0.00097371259471401572, 0.00086984917288646102, 0.00072222657036036253, 0.0006408946355804801, 0.002328778151422739, 0.00083752843784168363, 0.0010997318895533681, 0.00073152204276993871, 0.00074772501830011606, 0.00055875565158203244, 0.0016107370611280203, 0.00053503771778196096, 0.0019393499242141843, 0.00048854353372007608, 0.00043648993596434593, 0.00097189669031649828, 0.00080905406503006816, } };
const TfLiteAffineQuantization quant19 = { (TfLiteFloatArray*)&quant19_scale, (TfLiteIntArray*)&g0::quant6_zero, 0 };
const MODEL_SECTION(EI_MODEL_SECTION) ALIGN(16) int32_t tensor_data20[16] = { -33519, 8838, 5882, -5495, -1719, -2895, -9219, -42370, -2287, 25349, 41354, -7725, -5714, -20351, 33219, -55446, };
const TfArray<16, float> quant20_scale = { 16, { 0.00059374520787969232, 0.0006607452523894608, 0.0010023550130426884, 0.00089820177527144551, 0.00067720294464379549, 0.0010469104163348675, 0.0010332218371331692, 0.00044707898632623255, 0.00057328504044562578, 0.00070808350574225187, 0.00068762974115088582, 0.00056329683866351843, 0.001002615550532937, 0.0012290214654058218, 0.00052250910084694624, 0.00043547232053242624, } };
const TfLiteAffineQuantization quant20 = { (TfLiteFloatArray*)&quant20_scale, (TfLiteIntArray*)&g0::quant8_zero, 0 };
const MODEL_SECTION(EI_MODEL_SECTION) ALIGN(16) int8_t tensor_data21[16*1*1*48] = { 
  /* [0][0][][] */ -14,-1,-22,9,24,0,8,89,-49,21,44,-11,11,-8,-12,18,9,-11,-14,-15,40,-7,6,112,-13,91,2,-5,30,-11,29,-34,-15,45,11,-47,9,47,21,5,-101,-23,14,44,40,24,-127,-40, 
  /* [1][0][][] */ -35,-6,28,14,-37,16,-7,41,-45,-42,4,-51,-11,-13,0,-26,-16,127,-5,17,20,-6,-23,-13,19,-49,16,15,-32,-91,-33,10,-10,-13,28,5,-2,-45,-7,11,-13,-26,115,5,5,6,28,-10, 
  /* [2][0][][] */ -33,-9,-10,-33,-5,-65,7,-24,-4,8,11,27,14,51,-7,8,9,-16,-24,-13,-6,6,-3,-127,-11,57,-14,2,-1,-20,-8,-4,-10,63,11,3,25,2,23,2,-28,-3,-14,1,-1,-11,22,7, 
  /* [3][0][][] */ -12,42,-10,-27,-4,-5,1,-6,-26,1,9,43,-127,9,9,-5,-2,13,-16,-2,-42,4,-2,13,-12,-4,0,27,-3,17,0,9,-3,5,10,16,-9,32,38,9,6,1,29,-29,8,-11,-2,18, 
  /* [4][0][][] */ 33,-19,11,6,23,41,22,-26,-9,-1,11,-12,-9,24,2,8,13,7,-67,-3,6,8,4,58,2,-23,15,53,9,-63,22,-2,34,-40,29,-127,6,45,-2,19,-26,18,8,-21,4,-25,16,19, 
  /* [5][0][][] */ 26,0,-11,67,0,-5,6,26,-4,0,59,6,-1,78,-13,-8,-32,27,25,-4,7,0,-8,-33,1,-53,11,-14,-6,-5,-4,-13,75,-127,-3,31,-27,-13,15,4,-105,56,21,-2,1,-13,-118,-2, 
  /* [6][0][][] */ 24,-9,20,11,-8,-11,-2,-16,-1,2,15,9,-10,36,9,-2,2,1,127,12,5,6,10,-27,2,-1,24,-20,-3,-7,-9,8,0,-3,29,-27,1,-42,55,7,9,-7,-5,6,-9,-1,14,-4, 
  /* [7][0][][] */ -45,-14,-40,41,-17,81,-9,37,-6,37,-16,127,98,-26,4,0,-21,-38,-13,-15,-55,-9,-15,84,-8,-41,-77,-45,-22,-28,-1,-1,-18,-9,-18,20,33,-76,97,-8,31,26,-60,-62,-1,-6,-6,-16, 
  /* [8][0][][] */ -35,-28,7,12,-1,5,-2,24,9,-55,42,62,54,-1,27,5,-8,91,-20,-1,-34,11,-6,-19,6,3,14,51,-11,105,13,28,2,14,-27,-127,-119,75,35,23,26,-2,116,-18,25,33,35,34, 
  /* [9][0][][] */ -20,11,1,23,12,-25,-15,-10,68,-41,7,60,-65,3,24,-8,-4,33,-37,-23,69,8,-11,-30,-13,20,53,-21,0,15,17,-21,-12,12,70,-113,-10,-127,-95,4,-39,26,69,6,14,6,-2,-30, 
  /* [10][0][][] */ -8,-2,-26,-124,40,82,15,-19,11,28,29,7,45,-40,-24,0,20,-40,50,-36,37,-14,37,50,-35,-127,12,-31,35,37,29,-43,-8,-74,32,-7,5,-38,-6,-39,-35,-74,-17,14,14,14,27,-41, 
  /* [11][0][][] */ -9,59,8,57,21,-75,-54,-19,-8,54,10,0,-8,57,-1,-71,35,39,7,-1,-55,-102,18,3,17,-44,10,-20,41,-46,31,-69,42,-9,-27,-91,89,19,18,-127,-5,60,110,-75,-15,-49,38,21, 
  /* [12][0][][] */ 108,-10,-6,19,3,26,18,93,24,-5,-68,-15,-12,64,-13,-11,-4,-2,-9,-19,0,-7,1,7,3,27,-6,6,-9,20,-16,-1,-4,-68,-11,20,-11,-26,-32,7,-25,-63,-1,-127,-57,-4,73,-10, 
  /* [13][0][][] */ 15,6,2,-2,7,-14,1,0,-6,5,6,20,-8,13,3,-1,8,3,10,0,12,-11,4,1,-1,-4,20,127,12,1,5,2,-1,0,-37,19,7,0,2,-23,-11,0,3,7,8,-9,-7,-8, 
  /* [14][0][][] */ 60,-16,24,-70,50,15,40,-79,-49,-42,-18,127,-58,-51,45,34,45,11,-51,55,20,7,87,-6,9,51,-38,-101,32,-33,55,58,-13,61,-117,-52,-30,39,79,16,-37,17,53,1,-7,7,15,-36, 
  /* [15][0][][] */ -30,-70,-54,-34,23,48,70,-33,-13,25,-24,-41,73,-14,-84,60,57,35,71,-79,-107,-31,41,-17,-78,44,15,55,64,35,69,-66,53,45,100,118,-5,-127,11,-42,98,84,116,-56,-15,-25,-18,52, 
};
const TfArray<4, int> tensor_dimension21 = { 4, { 16,1,1,48 } };
const TfArray<16, float> quant21_scale = { 16, { 0.025234170258045197, 0.028081672266125679, 0.042600087821483612, 0.038173574954271317, 0.028781125321984291, 0.044493693858385086, 0.043911926448345184, 0.019000856205821037, 0.024364614859223366, 0.030093548819422722, 0.02922426350414753, 0.023940114304423332, 0.042611159384250641, 0.052233412861824036, 0.022206636145710945, 0.018507573753595352, } };
const TfLiteAffineQuantization quant21 = { (TfLiteFloatArray*)&quant21_scale, (TfLiteIntArray*)&g0::quant8_zero, 0 };
const MODEL_SECTION(EI_MODEL_SECTION) ALIGN(16) int32_t tensor_data22[48] = { 6026, 40804, -1689, 61035, 4734, 125290, -2322, 46736, 5001, 32746, 26600, 4777, 4366, 28841, -908, -2169, -622, -1973, 2230, -2168, -763, -5443, -2353, -17283, -6320, 55894, 126445, 114896, 5002, 14326, -3424, 119, 25680, -438, 54826, 18277, 97967, 4626, 46665, 2375, 3562, 49554, -2386, 2152, 43744, 425, 9421, 51175, };
const TfArray<1, int> tensor_dimension22 = { 1, { 48 } };
const TfArray<48, float> quant22_scale = { 48, { 5.7870573073159903e-05, 3.3356580388499424e-05, 0.00019468898244667798, 3.9839957025833428e-05, 0.00012626551324501634, 6.9233516114763916e-05, 0.00016232952475547791, 0.0001274141832254827, 6.5462729253340513e-05, 3.7371373764472082e-05, 4.1863477235892788e-05, 7.3516494012437761e-05, 3.8371203118003905e-05, 3.4959353797603399e-05, 0.00015717762289568782, 0.00019857361621689051, 0.00018178024038206786, 9.238104394171387e-05, 0.00011643166362773627, 0.00012830026389565319, 0.0001075108302757144, 0.00017442273383494467, 9.386808960698545e-05, 0.0001017213289742358, 9.3269954959396273e-05, 7.8045421105343848e-05, 1.7486760043539107e-05, 5.509547918336466e-05, 0.00011773028381867334, 5.5759774113539606e-05, 0.00010972280870191753, 0.00014512156485579908, 4.8308091209037229e-05, 0.00011955183435929939, 2.6419076675665565e-05, 3.8871290598763153e-05, 5.8891815569950268e-05, 7.1824237238615751e-05, 0.00012380018597468734, 9.1510126367211342e-05, 8.2252663560211658e-05, 0.00012428626359906048, 7.8741366451140493e-05, 9.4589689979329705e-05, 2.2647964215138927e-05, 0.00016722400323487818, 6.6766624513547868e-05, 2.7531081286724657e-05, } };
const TfArray<48, int> quant22_zero = { 48, { 0,0,0,0,0,0,0,0,0,0,0,0,0,0,0,0,0,0,0,0,0,0,0,0,0,0,0,0,0,0,0,0,0,0,0,0,0,0,0,0,0,0,0,0,0,0,0,0 } };
const TfLiteAffineQuantization quant22 = { (TfLiteFloatArray*)&quant22_scale, (TfLiteIntArray*)&quant22_zero, 0 };
const MODEL_SECTION(EI_MODEL_SECTION) ALIGN(16) int8_t tensor_data23[1*3*3*48] = { 
  /* [0][0][][] */ 72,-97,104,72,52,-36,106,-63,64,-87,-88,53,51,-66,-69,-91,107,87,51,77,69,-71,-82,53,-27,-50,-68,-65,-67,61,-62,-117,-20,48,68,68,-67,53,-53,-21,53,-76,60,58,-92,10,77,-38, 82,-92,127,89,-79,-70,-56,-84,99,-99,-68,78,78,-95,-92,93,-35,96,85,127,88,-111,52,71,-46,-78,-75,-79,51,80,-29,-127,-87,79,78,86,-80,82,-85,-14,76,-96,80,88,-68,-127,91,-104, 37,-38,73,41,18,-39,-50,-40,43,-29,3,37,28,-32,-54,1,-55,41,34,68,35,-54,31,24,-23,-44,-51,-23,29,34,90,-90,-91,43,32,37,-32,39,-43,-11,34,-45,34,40,-4,-10,38,-72, 
  /* [0][1][][] */ 92,-118,-39,93,53,-85,127,-90,88,-112,-85,85,84,-127,-18,-127,127,110,77,-36,87,107,-127,78,76,-84,-98,-102,-127,87,-69,-10,-87,74,109,98,-90,80,-84,88,92,-103,90,94,-92,110,91,-93, 127,-127,-62,127,-127,-127,-89,-127,127,-127,-127,127,127,-127,-29,101,-65,127,127,-49,127,127,71,127,127,-127,-127,-127,49,127,-29,16,-127,127,127,127,-127,127,-127,127,127,-127,127,127,-127,-10,127,-127, 64,-71,-28,64,39,-61,-48,-65,60,-45,-56,58,47,-22,-19,15,-65,56,59,-32,56,62,54,63,64,-67,-65,-45,32,55,127,14,-67,68,47,52,-53,58,-64,54,58,-59,54,62,-53,-68,60,-56, 
  /* [0][2][][] */ 47,-58,-48,48,27,-54,66,-45,47,-77,-14,44,58,-58,88,-80,77,54,36,-27,32,-6,-75,35,-20,-54,-50,-52,-74,35,-41,90,-77,43,47,48,-32,37,-50,-88,54,-56,51,43,-23,18,46,-71, 74,-80,-50,81,-56,-61,-72,-70,58,-85,-66,64,76,-35,127,34,-49,62,63,-39,62,-13,46,69,-46,-72,-81,-62,30,64,-24,118,-55,66,54,59,-54,61,-71,-106,68,-73,69,61,-79,50,67,-54, 44,-41,-22,49,30,-19,-20,-38,20,-33,-56,30,37,11,68,27,-37,28,30,-30,31,2,44,45,-24,-37,-53,-25,31,38,64,67,-7,37,13,24,-30,32,-32,-57,31,-37,33,32,-55,9,35,-5, 
};
const TfArray<4, int> tensor_dimension23 = { 4, { 1,3,3,48 } };
